5548 64
88 -0.025295 0.021415 -0.242980 -0.055525 -0.022334 -0.140956 0.161563 0.214382 0.171328 0.046518 0.123611 -0.325649 0.054001 -0.026809 0.077408 0.061416 0.209033 -0.020062 -0.160932 0.125982 0.377838 0.140007 -0.228932 0.078327 0.236209 -0.037907 -0.296159 -0.095579 0.134129 0.086224 -0.457809 -0.092860 0.172850 -0.121983 0.085626 0.114124 0.067548 0.223663 0.330808 0.140555 0.222511 0.202325 -0.008311 0.282939 -0.109087 0.190808 0.000553 -0.305647 -0.068897 0.124054 0.121409 0.009332 0.004572 0.431440 0.021316 0.088794 0.352717 0.090210 -0.022339 -0.028980 -0.042059 0.017631 0.421800 -0.013274
677 0.106771 -0.118841 -0.004058 -0.240162 0.026984 0.073212 0.133741 0.161340 0.239806 -0.004662 -0.065437 0.068609 0.011653 -0.488692 0.134823 0.282805 -0.053432 -0.287497 0.321951 -0.012865 0.077652 0.395466 -0.181212 0.075170 -0.243926 0.207637 0.039075 -0.258908 0.394129 0.173709 -0.615157 -0.225725 -0.042469 -0.331115 0.087001 0.044708 0.182438 -0.148785 0.018029 0.150106 0.231406 0.254370 -0.034807 -0.058407 -0.021788 -0.177604 0.258074 -0.314543 -0.474593 0.155173 0.407661 0.092114 0.555967 0.044227 0.213146 -0.250588 0.226112 -0.030139 -0.062805 -0.015031 0.050710 0.593533 0.292108 -0.357155
1988 -0.274033 0.163947 -0.256415 -0.171940 -0.292458 -0.024581 -0.190362 -0.165510 0.426616 0.119319 -0.237538 0.228081 0.191346 -0.178369 0.012974 0.102435 0.675949 -0.238595 0.094286 0.050655 0.297636 0.051708 0.035408 0.428397 0.012548 0.158239 -0.061083 0.284052 0.131842 0.107367 -0.325706 -0.250282 -0.160536 0.000443 -0.337840 0.071435 0.209376 0.286826 0.246993 0.126933 0.090740 0.311997 0.051355 0.057385 0.033853 -0.175780 0.212233 -0.201701 0.217845 -0.051581 0.231120 0.064097 0.153228 0.442370 0.204180 -0.725325 0.421855 -0.017574 0.126838 0.049954 0.137833 0.189752 0.149072 -0.089512
3998 -0.107482 0.088292 -0.312407 -0.243326 -0.161992 -0.051815 0.178936 0.159900 0.654193 0.191299 0.064799 0.122545 0.109570 -0.265335 -0.283027 0.214269 0.341499 0.044764 -0.061683 -0.158226 0.271254 0.179455 -0.037498 -0.015519 0.059776 -0.019344 -0.173163 -0.326026 0.187266 0.230662 -0.185999 -0.116290 0.096506 -0.067639 -0.131739 -0.020380 0.384515 0.103856 0.264302 0.027844 0.035107 0.007720 -0.313528 0.288388 0.071649 0.331834 -0.495737 -0.285759 -0.224952 -0.014239 0.155641 -0.131314 0.134870 0.029034 0.244695 0.082958 0.739411 -0.144810 0.302202 -0.047789 0.140231 0.230756 0.156128 -0.270075
349 -0.203957 0.116620 0.126887 0.089201 -0.140889 -0.279084 -0.147809 -0.073311 0.297295 -0.155870 -0.431340 0.177950 0.098703 -0.565224 0.126112 0.328065 0.151486 -0.430486 -0.053992 0.344493 0.164729 0.445487 -0.477230 -0.079195 -0.125110 0.266301 -0.141226 -0.312060 0.298899 -0.082944 0.047858 -0.016354 0.060827 -0.168664 -0.032667 0.175759 -0.055060 0.407952 0.141918 -0.057567 0.634746 0.513900 -0.264278 -0.089166 0.234110 -0.021632 -0.122642 -0.129527 -0.282456 -0.620485 0.173080 0.033455 0.221132 0.036733 0.327284 -0.105559 0.334453 -0.407283 -0.252225 -0.362321 -0.243762 0.224483 -0.125046 -0.118447
13808 -0.069256 0.029190 -0.207488 0.080558 -0.200581 -0.341788 0.269874 -0.217363 0.279777 -0.152525 0.293633 -0.209435 -0.302037 -0.542526 0.095992 0.122017 0.336411 -0.067830 -0.160269 0.506029 -0.026757 0.292454 0.250328 0.118388 -0.490323 -0.106283 -0.266040 0.048180 0.204390 0.143464 0.202145 -0.309598 0.128456 0.044438 -0.424969 0.291247 0.644114 0.060504 0.410921 0.231134 0.131571 -0.032016 0.228611 -0.071719 -0.014129 0.156846 -0.220916 -0.356690 0.022242 -0.107183 0.584998 0.254334 0.250728 0.055315 0.537731 -0.085097 0.258354 0.045043 -0.257841 0.228357 -0.001061 0.302102 0.375059 -0.237423
5226 -0.033654 -0.310256 -0.208330 0.122098 -0.217941 -0.233308 0.165034 0.067814 0.315698 -0.213811 -0.083457 -0.129179 0.213569 -0.359624 0.112630 0.145964 0.714846 0.071511 0.164209 0.162994 0.174046 0.131766 0.025857 0.091909 -0.306824 0.503216 -0.160812 -0.440938 0.332380 0.230028 -0.290466 -0.462958 0.177497 0.314430 -0.114387 0.475882 0.380140 0.947889 0.261629 -0.060312 0.053740 -0.366389 0.107591 0.157026 -0.112756 -0.105786 -0.014227 -0.102039 -0.262387 -0.107087 0.076243 0.150810 0.058499 -0.363713 0.070388 0.038486 0.002460 -0.185152 0.079828 0.157315 -0.147848 0.181897 0.168348 -0.021972
13813 0.151373 -0.134190 -0.481708 -0.116312 -0.288176 -0.031975 0.243109 -0.081703 0.429132 -0.037683 -0.214702 -0.135836 0.136237 -0.284326 -0.166095 0.221187 0.604242 -0.010985 -0.249260 -0.204531 0.150246 0.259043 0.038827 -0.095168 -0.107812 0.241652 0.053777 -0.240495 0.065433 0.078446 -0.322847 -0.146595 0.132267 -0.180913 -0.219069 -0.138819 0.251519 0.100627 0.236915 0.215611 -0.150449 0.236134 -0.531587 0.211896 -0.042482 0.367945 -0.206709 -0.372025 0.004786 -0.188019 0.242392 -0.087784 0.228189 0.286282 0.241888 0.280813 0.521938 -0.156050 0.679610 0.088989 0.016635 0.257473 0.124665 -0.066417
2417 0.174680 0.002767 -0.425874 0.047876 -0.015750 -0.195219 0.099146 0.167849 0.350201 0.149696 -0.019285 -0.266846 0.106322 -0.375090 0.475159 0.250110 -0.231466 -0.512868 0.255820 0.173297 -0.357072 0.354294 0.518641 0.364855 -0.400538 0.397050 -0.062160 -0.027130 0.074076 0.536765 -0.236663 -0.122206 0.081442 0.043202 -0.431695 0.387618 0.034570 0.194922 0.251037 -0.317616 0.120405 0.467309 0.235824 0.321442 0.070791 0.136120 -0.367687 -0.077896 0.289074 0.552978 0.516811 0.037936 -0.185700 -0.028318 0.278275 -0.087699 0.542764 -0.437126 -0.087163 -0.391883 -0.058129 0.232609 0.394051 0.182591
511 0.331934 -0.385840 0.097360 -0.155570 -0.012833 -0.147842 -0.059900 0.277808 0.166679 0.221841 -0.434859 -0.129289 -0.064113 -0.760560 0.337062 0.193157 0.782171 -0.156315 -0.415311 0.423041 0.151857 -0.257643 -0.273586 0.046364 -0.452322 -0.175351 -0.062617 0.021327 0.096987 0.024971 0.211534 -0.046840 0.173347 0.094141 -0.404710 0.150552 0.393896 0.171850 0.705586 0.298619 0.770538 -0.217227 0.114909 0.041449 -0.017417 0.038124 0.089507 0.288680 -0.283795 0.170048 0.477161 0.162104 -0.296931 -0.006201 0.222789 -0.104745 0.272218 -0.208219 -0.179816 0.111160 -0.319427 0.302713 0.313302 -0.179453
1276 -0.077614 0.364940 -0.319428 -0.082133 0.149297 0.117327 0.003136 0.130931 0.462587 -0.528754 -0.369692 0.105918 -0.304541 -0.551266 -0.021031 0.241495 0.168420 -0.749842 0.055244 0.292067 0.088648 0.485526 -0.351081 -0.151332 -0.311657 0.073052 -0.080179 0.108517 0.043090 0.047906 -0.140651 0.054113 -0.204713 -0.117569 -0.358756 0.163153 0.274066 0.860206 0.268600 0.559511 -0.240766 0.157766 0.005384 0.289283 0.023884 0.081012 -0.211873 -0.020820 -0.193604 -0.277520 0.087550 0.281708 0.017281 0.127479 -0.126092 -0.045257 0.271665 0.042263 0.126182 0.093159 0.011025 0.061463 0.330850 -0.288957
89805 0.198154 0.053784 -0.318569 -0.085117 -0.138380 -0.096994 -0.041839 0.286154 0.323672 -0.238177 -0.219734 -0.402244 0.375340 -0.970042 0.075396 -0.032188 -0.058301 0.008072 -0.512952 0.189956 0.539949 0.251460 0.312310 -0.097586 -0.185904 0.011885 -0.270342 0.245210 0.466619 0.154339 -0.282974 0.091682 -0.163844 0.150573 -0.064528 -0.136125 0.465836 0.472129 0.353097 0.033261 -0.009561 -0.023932 0.009680 0.027306 -0.045798 0.151213 -0.218391 -0.081176 -0.234787 0.282033 0.246132 0.309071 0.176050 0.138027 0.395691 0.131551 0.228969 0.118035 -0.209459 0.160134 0.099210 0.272946 0.155246 -0.266534
519 -0.066509 0.356130 -0.504910 -0.105954 0.128852 -0.372463 -0.000933 0.167093 -0.142034 0.208507 -0.157834 -0.554776 0.192694 -0.371229 -0.082593 -0.276873 0.572576 -0.392574 -0.065433 0.249957 -0.220661 0.160509 -0.072341 0.404477 -0.396756 0.192161 -0.479863 0.145296 0.095134 -0.167620 -0.232749 -0.028087 -0.442809 -0.351725 -0.332500 -0.368521 0.442165 0.256401 0.275089 0.032118 0.490444 0.007105 0.157243 0.260524 -0.819522 -0.218052 -0.123617 -0.445420 -0.302482 0.220315 0.124258 0.108885 -0.029899 0.047754 0.332367 0.059313 0.050315 -0.404452 0.383582 -0.205237 0.078890 0.130375 0.183471 -0.109682
6940 0.600961 -0.027056 0.078839 0.114198 -0.568790 -0.143574 -0.059938 0.534761 0.670206 0.002508 -0.370948 0.187593 0.190600 -0.058971 -0.053292 0.288720 0.498604 -0.462689 -0.383797 0.032309 0.091865 -0.139799 -0.325800 -0.286522 0.017639 0.309964 -0.158920 0.299728 0.517422 0.438924 -0.286726 -0.374933 0.245292 -0.063575 -0.086588 -0.160107 0.099974 0.123930 -0.210324 -0.513479 0.003147 0.199894 0.200586 -0.144351 -0.281930 -0.170953 -0.252723 -0.714129 -0.223388 0.360999 0.317260 -0.042840 0.168371 0.025439 -0.160935 0.184144 0.039913 -0.178471 0.111350 -0.437532 -0.680622 0.166158 0.512784 0.259449
9964 0.080280 -0.214335 0.007354 -0.546120 0.154280 0.080522 0.228220 -0.059030 -0.073426 0.571161 0.082683 -0.056430 -0.149027 -0.523584 0.701157 0.631893 0.132337 0.062805 -0.464202 -0.002698 0.092619 0.416596 0.030433 0.162377 -0.156937 0.173987 -0.514914 0.244892 0.474315 -0.233808 -0.385159 -0.328200 -0.343810 0.084008 0.072420 0.036738 0.591948 0.240738 0.043683 0.310244 -0.158455 0.328155 -0.248858 0.263584 0.010477 -0.580498 0.040744 -0.205744 -0.295600 -0.321766 0.129186 0.599635 0.045822 0.225972 0.184766 0.052252 0.065958 -0.469859 0.056471 -0.454657 -0.081515 0.670789 0.311154 -0.251743
12751 0.265777 -0.031330 -0.490977 -0.132227 -0.011903 -0.010002 0.307335 0.153909 0.160190 0.043030 -0.085468 -0.030854 -0.161838 -0.384281 -0.377814 0.056952 -0.072957 -0.149980 -0.340215 0.221295 0.256801 0.220474 0.115029 0.134265 -0.671833 0.235592 -0.547565 -0.223929 0.135386 -0.105653 -0.245907 0.075310 -0.137604 0.592983 -0.225971 0.186768 0.399323 0.398090 0.349542 0.146668 0.441581 0.111903 -0.315301 -0.514984 0.003694 -0.242192 -0.100758 -0.193871 -0.085471 0.809300 0.281415 0.031086 -0.133870 -0.027221 0.404113 0.072458 0.276684 -0.065765 -0.137867 0.215215 -0.079864 0.798534 0.245530 -0.378058
11991 0.198969 0.206018 -0.006251 0.093423 -0.185809 -0.283898 0.262598 0.460253 0.191285 -0.159081 -0.493812 -0.293206 -0.101008 -0.271176 -0.204355 0.308624 0.336254 -0.114840 -0.433105 0.415890 0.047701 0.293372 -0.181806 0.140020 -0.193689 -0.191000 -0.325787 0.034672 0.013165 0.100128 -0.317235 -0.170524 0.051407 0.301584 0.090057 -0.139501 0.103248 0.505331 0.244331 0.079893 -0.531797 0.305850 -0.297319 -0.224599 -0.136550 0.378633 -0.322031 -0.223818 -0.210908 -0.141492 0.563137 -0.187310 -0.113555 -0.147005 0.399169 -0.163781 0.557946 0.546185 0.297797 0.069233 0.160883 0.221901 0.223044 -0.404091
64911 -0.031054 -0.041820 -0.159754 -0.402097 0.146427 -0.047505 0.150608 0.363975 0.946193 -0.033437 -0.205004 -0.345235 0.233748 -0.417730 -0.069884 0.068558 0.180938 0.214541 -0.462196 0.282629 0.156536 0.226048 0.152907 0.165079 -0.450847 0.212348 -0.434117 -0.131416 0.123941 -0.075569 -0.446765 -0.256270 -0.098828 0.039230 -0.046818 -0.034016 -0.105288 0.301035 0.051767 -0.062014 -0.105212 0.245957 -0.267711 -0.000516 -0.107124 0.469149 -0.144221 -0.575530 -0.347330 0.201796 0.178875 0.065958 -0.240224 0.426814 0.195589 -0.336031 0.517128 0.019300 0.323090 0.191620 -0.073302 -0.097485 -0.338346 -0.314892
35376 0.104782 0.190047 -0.068861 -0.040135 -0.618602 -0.119261 -0.094400 0.213245 0.948272 0.098396 -0.856473 -0.214098 0.108773 -0.122338 -0.362684 0.096509 -0.009610 -0.198871 -0.594011 0.321804 0.137117 -0.136263 -0.298279 0.068305 -0.095652 0.429274 -0.165544 0.113641 0.321774 0.521995 -0.463565 -0.423288 0.087974 0.182157 -0.076929 0.131763 0.166387 0.200730 0.146172 -0.528168 -0.246410 0.044787 -0.210286 -0.396692 0.134744 0.166158 0.108220 -0.528321 -0.404830 0.180218 0.187640 0.206434 0.268055 0.239966 -0.020880 0.399037 0.009035 0.079911 0.143076 -0.289499 -0.356416 0.057773 0.294905 0.157754
14615 0.490645 0.455357 -0.340505 -0.207366 -0.419884 -0.130750 0.371416 0.343962 0.276125 -0.113114 -0.104677 -0.122907 0.236015 -0.075086 -0.169339 0.270290 0.401707 -0.434212 -0.543820 0.321052 0.262818 -0.287729 -0.367605 -0.044968 0.197350 0.271319 0.196573 -0.068555 0.193224 0.373607 -0.256595 -0.862516 0.549806 0.126953 0.022187 0.115855 0.411783 0.305130 0.196052 0.068750 -0.172681 0.426258 0.002671 -0.285403 0.398683 -0.374733 -0.646986 -0.861540 -0.012231 0.090699 0.457872 0.133041 -0.021834 0.257161 -0.132760 0.464205 -0.437949 -0.072274 0.221446 -0.357778 -0.136947 0.243818 0.254163 0.339933
6241 0.115913 -0.124323 -0.155982 -0.244443 -0.464460 -0.180846 -0.384343 0.197490 0.511356 0.229351 -0.037287 0.033777 0.199105 -0.684278 0.059670 0.412798 0.022335 -0.069540 -0.376650 -0.078635 -0.209610 0.441055 -0.049848 0.481935 -0.028234 0.258797 -0.418035 -0.221549 -0.139096 -0.023347 0.032277 -0.189086 0.152632 -0.586936 -0.075743 0.193887 0.295663 0.918129 0.120517 0.051571 0.422473 -0.123123 0.333794 0.039396 0.035464 0.254356 0.037656 0.306962 -0.356110 0.101031 0.507779 -0.292599 0.295650 0.246383 0.528028 -0.202866 -0.107541 0.023098 0.172249 0.253096 -0.305683 0.409207 0.192291 0.011456
3604 0.168035 0.258918 -0.141593 0.151139 -0.323565 0.191506 0.024972 0.006581 0.702900 -0.110026 -0.460271 -0.289230 0.254390 -0.066946 0.009553 0.445699 0.262299 -0.428090 -0.053933 0.015678 0.197341 0.167728 -0.141137 -0.092256 -0.637700 -0.413335 0.230180 -0.182479 0.285086 0.036811 0.250386 0.328127 -0.397656 -0.246225 0.015056 0.309384 0.643447 0.705178 0.370013 0.172624 0.460503 -0.523813 -0.096768 0.029951 0.014550 -0.238644 -0.232863 -0.177211 -0.550428 -0.036942 0.090709 0.023252 -0.136752 0.605817 0.452179 -0.156003 0.151178 0.148285 -0.281739 -0.498946 0.049633 0.317002 0.129580 -0.261329
3571 0.144408 -0.205920 -0.554401 -0.615518 0.187658 -0.156377 -0.359227 0.255239 -0.157782 0.578411 0.101564 0.004269 -0.134401 -0.369101 0.259700 0.774604 0.139629 0.054938 -0.063755 -0.004379 -0.111998 0.125750 -0.459384 0.195005 -0.210484 -0.072145 0.452408 -0.560433 0.225836 0.004664 -0.586054 -0.458603 -0.430137 -0.113079 0.290740 0.066179 0.204795 0.560384 0.490546 0.056782 0.353615 0.208472 -0.012220 -0.441626 0.299578 0.362945 -0.061677 -0.533694 -0.159304 0.058220 0.439190 0.134184 -0.135388 0.159450 0.275371 -0.665768 -0.005799 -0.208088 -0.164791 0.241429 -0.386045 -0.176884 0.220456 -0.408953
3547 -0.225423 -0.070290 -0.192998 0.492123 -0.278595 0.393138 0.307838 0.597074 0.502798 -0.112845 -0.006890 -0.213026 0.128945 -0.593801 -0.039354 0.326613 0.404435 0.176437 -0.413698 -0.098527 0.260499 0.020923 -0.137452 -0.126922 -0.509299 0.496678 -0.204765 0.115318 -0.008970 0.310526 -0.139986 -0.117749 -0.406167 0.456522 -0.161674 0.033122 0.171012 0.161814 0.554890 0.053846 0.484047 -0.191957 0.185903 0.029639 -0.110013 0.401104 -0.408094 0.038644 -0.263806 -0.532105 0.412672 0.033632 -0.060436 0.299115 0.225947 -0.130682 0.054843 0.058032 0.325820 -0.261441 -0.238777 0.264275 0.157282 -0.458536
9021 0.095653 0.364283 0.349946 0.199954 -0.095570 0.074933 0.132625 0.705581 0.987431 0.427983 -0.665979 -0.510850 0.314642 0.260739 -0.165616 0.107238 0.130124 -0.148722 -0.438921 0.644071 -0.294561 -0.189888 -0.447046 -0.028747 -0.088297 0.065103 -0.155919 0.166386 0.695461 0.219523 -0.181795 -0.796987 0.379835 0.164305 -0.071786 0.179236 0.370862 0.441487 0.121489 -0.109153 -0.155244 0.132175 -0.341419 -0.016581 0.037759 -0.159943 0.088147 -0.287916 -0.304970 -0.330243 0.203414 0.033147 0.355381 -0.005832 -0.136085 0.245946 0.375973 0.153536 -0.047979 -0.422354 -0.473022 0.098943 0.448076 -0.572611
19913 0.205526 0.173970 -0.135334 -0.054912 -0.248896 -0.427248 -0.096700 0.596481 0.788271 0.102125 -0.751034 0.168294 0.162401 -0.055121 0.099682 0.469724 0.144003 -0.503226 -0.245785 0.314677 0.358557 -0.562076 -0.267638 -0.255573 0.141469 0.075035 0.030448 -0.013520 0.365903 0.343534 -0.224651 -0.284501 0.493773 0.013880 -0.206981 -0.071531 0.681682 0.203466 -0.128716 0.259020 0.023093 0.427642 0.386320 -0.113075 -0.189087 0.087845 0.095893 -0.536520 -0.397269 0.310342 0.085490 0.369803 0.515237 0.003573 -0.114449 0.275073 0.367210 -0.001446 0.536729 -0.493191 -0.294471 -0.180490 0.153225 0.795348
492 0.320370 -0.171188 0.082536 0.008807 -0.033122 -0.226769 0.452568 0.120833 0.334151 -0.149116 -0.551433 0.049414 0.303942 -0.771232 0.354095 -0.100374 0.021394 0.096363 -0.106130 0.200293 -0.013617 0.164064 -0.296796 -0.296860 -0.410232 0.071890 -0.187526 -0.159464 -0.013302 0.216419 0.114294 -0.134676 -0.207722 -0.119958 -0.621678 0.367574 0.274474 0.558136 0.553889 0.583921 0.155229 -0.120034 0.389200 -0.372762 -0.296928 -0.410147 -0.315824 0.209040 -0.088104 0.345286 0.271424 0.111340 -0.253366 0.505232 -0.010522 -0.092943 0.433143 0.029424 -0.368172 -0.345556 -0.137857 0.240827 0.249519 -0.658343
26158 0.038874 -0.245415 -0.162758 -0.051964 -0.436905 0.105986 0.024270 0.483154 -0.185833 0.138155 0.019934 -0.256808 -0.148973 -0.227705 -0.329951 0.187193 0.154446 -0.167267 -0.111188 0.112510 0.243136 0.191749 0.204044 0.182626 -0.582060 0.206571 -0.320335 0.064758 0.061186 -0.280793 -0.140273 -0.365369 -0.017719 -0.126445 -0.430342 -0.110075 0.295660 0.633825 0.230647 -0.068762 0.416811 0.152345 -0.547464 -0.192076 -0.046318 0.318360 -0.154051 -0.556260 -0.083158 -0.236135 0.781884 0.364362 0.216273 -0.068490 0.219614 -0.025222 0.389920 0.000410 -0.225601 0.252787 -0.003089 0.253037 0.423188 -0.246655
16358 0.350030 0.271920 0.111421 -0.073215 -0.721648 -0.333611 -0.303685 0.209557 0.833863 0.494031 -0.435274 -0.204372 0.436937 -0.325317 -0.127714 -0.139792 0.335739 -0.606345 -0.268632 0.137611 0.075336 -0.234777 -0.358212 -0.121286 0.079520 0.504133 0.047519 0.123124 0.262943 -0.102546 -0.583291 -0.164704 0.179878 0.057812 -0.490460 0.129395 0.110693 0.333562 0.016049 -0.169265 -0.303336 0.140378 -0.147538 -0.240195 0.082921 0.113465 -0.129910 -0.838595 -0.283106 0.116376 0.290313 0.213229 0.163988 0.102555 -0.188819 0.387272 -0.040264 0.141901 -0.078305 -0.527104 -0.743780 -0.085341 0.471624 0.319724
2014 -0.023510 0.018249 0.407363 0.236503 0.147220 -0.393808 0.308338 -0.200062 0.794354 0.184278 -0.567445 0.092421 0.291390 -0.520747 0.666016 -0.423871 0.261990 -0.050791 -0.092108 -0.136668 -0.009212 0.395964 0.048551 0.153619 -0.643742 -0.320571 0.254709 0.142337 -0.339871 0.144843 -0.240659 -0.397690 -0.008500 0.120224 0.583444 -0.032507 0.299480 0.462350 0.248999 0.197239 0.314873 0.135406 -0.116583 0.008799 -0.265415 0.009340 -0.554048 -0.530014 -0.394061 -0.085377 0.542522 0.074601 0.236080 0.401595 0.412346 0.040437 -0.029455 0.234888 -0.015285 -0.185170 -0.259411 0.525961 0.423227 -0.605354
2177 0.027049 0.000473 0.076866 0.113271 -0.409156 0.034934 0.073179 0.027744 -0.321255 0.207023 -0.096436 -0.136064 -0.259085 -0.565076 0.477739 -0.232139 0.047793 -0.363653 -0.153519 0.154375 0.584651 0.502853 0.155846 0.393746 -0.445970 0.331387 -0.046720 -0.045033 0.456392 0.248733 -0.420171 0.070325 0.052005 -0.258193 -0.204423 0.054013 0.382957 0.582845 -0.092263 0.069529 0.336422 0.042090 -0.074749 0.148243 0.058909 -0.135104 0.230681 -0.630071 -0.082293 0.480816 -0.083524 0.486293 0.226499 -0.341621 0.267290 0.137579 0.544335 -0.061145 0.137278 0.258233 -0.183996 0.608059 0.339842 -0.672854
5137 -0.169328 -0.255381 -0.319003 0.327992 -0.194765 -0.209445 -0.000653 0.539925 0.406060 -0.505100 0.083739 0.194830 -0.135977 -0.387450 0.201047 0.220434 0.397488 -0.389015 -0.351949 -0.249985 -0.047491 0.420155 -0.427672 0.118245 -0.288475 -0.215859 -0.095086 -0.189945 0.462435 0.299592 -0.500020 -0.263495 -0.220066 0.042828 -0.046124 0.378971 -0.267362 0.371303 0.095074 0.450977 0.295812 -0.010843 -0.287712 0.289592 0.249105 0.023327 0.199684 0.031329 -0.025993 -0.189306 0.182189 0.055556 -0.098131 0.216374 0.901686 -0.082173 0.230739 -0.322165 0.308872 0.025639 0.129113 -0.030566 0.631773 -0.163585
16527 0.130844 0.363439 0.128420 0.235361 -0.246791 0.127638 -0.022759 0.407428 0.862381 -0.189128 -0.408031 0.208017 0.348486 -0.287981 -0.104628 -0.047030 0.201942 -0.167596 -0.552693 0.253243 0.104146 -0.238918 -0.385190 -0.058925 0.364641 0.374392 -0.083752 0.055942 0.293640 0.269890 -0.400165 -0.194935 0.415683 0.069461 -0.430088 0.457116 0.045975 0.438322 -0.050762 -0.206805 -0.218926 0.209900 -0.327196 -0.366386 -0.051539 -0.146170 0.161378 -0.811579 -0.192365 0.160220 0.224413 0.196077 0.112571 0.254935 -0.024989 0.164427 0.061840 -0.155812 0.233629 -0.607135 -0.864865 0.079986 0.630318 0.542043
13798 -0.162170 -0.187701 -0.008176 -0.364903 -0.404912 0.031639 0.074291 0.246850 0.293382 0.057256 0.051521 0.060296 -0.058177 -0.447311 -0.291758 0.318107 -0.045118 -0.071467 -0.031636 -0.175285 0.452387 0.217018 0.181397 0.151973 -0.450845 0.047863 -0.172377 0.089231 0.282097 0.272090 -0.063921 -0.043875 -0.094765 0.112043 -0.102356 0.112507 0.213378 0.920751 0.526799 -0.063351 0.475700 0.410043 0.032131 -0.203858 0.021786 -0.176812 0.432468 -0.314690 0.232673 0.000668 0.504406 0.636271 0.050531 -0.133754 0.633124 0.171859 0.613842 -0.322973 -0.087232 0.382567 0.258428 0.208461 0.450259 -0.128036
26398 -0.077383 -0.046209 -0.283277 0.107745 -0.232822 -0.060635 -0.057535 0.587637 0.638160 -0.158601 -0.133780 0.006534 0.106631 -0.687071 0.370799 0.173480 0.165377 0.009471 -0.156665 0.360348 0.445287 0.518133 -0.103591 0.528034 -0.336274 -0.058394 -0.037504 0.143261 0.285425 -0.039130 -0.166861 -0.156839 -0.224384 -0.330711 -0.339170 0.456102 0.518147 0.676106 0.186337 0.336197 -0.219947 -0.286421 0.298428 0.346495 0.181302 0.134455 -0.205743 -0.033578 -0.418505 -0.092309 0.287128 -0.273202 -0.376085 0.122377 0.460554 -0.093009 0.069054 0.400759 -0.257802 0.027454 -0.082962 0.177184 -0.043572 0.026565
4665 -0.053775 -0.149967 -0.441523 0.328538 -0.258131 -0.450727 -0.391984 0.435606 0.462519 -0.009340 -0.056141 0.193354 0.229722 -0.648895 0.085170 0.006771 0.419946 -0.145777 -0.128586 0.406507 0.018886 0.257939 -0.272361 -0.124727 -0.740932 -0.361169 0.023419 0.098540 -0.021982 0.324344 -0.178013 -0.072688 -0.109036 -0.028786 0.069483 0.383366 -0.152725 0.653044 -0.001056 0.514785 0.001515 -0.141388 -0.286779 0.128842 -0.370415 -0.096363 -0.209891 -0.243314 -0.144478 0.094891 0.533192 -0.078014 -0.004218 0.569310 0.311571 0.197912 0.471236 0.141738 -0.175416 -0.429056 0.262452 0.433175 -0.068357 -0.395466
19604 0.099680 -0.027873 -0.257457 -0.213652 -0.494329 -0.191729 0.404727 0.003046 -0.052064 -0.056505 -0.574823 -0.188321 0.394088 -0.202701 -0.411511 0.501978 -0.066547 -0.300063 -0.059734 0.201620 -0.009712 0.400388 -0.060583 -0.046400 -0.427678 -0.115760 -0.162077 0.171975 0.138208 0.272690 -0.196265 -0.186022 0.010326 0.445092 -0.331842 -0.536866 0.450360 0.448642 0.194075 0.398758 -0.193641 0.475061 -0.393344 0.491305 0.046049 0.461507 -0.329041 -0.440037 -0.253395 -0.146615 0.199336 0.012978 -0.180001 0.490325 0.420675 -0.080298 0.318054 -0.005216 0.238934 -0.059992 0.011718 0.212295 0.131247 -0.163961
39885 0.337986 0.085684 0.055334 -0.250615 -0.119461 -0.360145 0.120334 0.383108 0.301657 -0.079992 -0.057321 -0.148969 0.040797 -0.381463 -0.225704 0.350021 0.208651 0.361869 -0.536853 0.181496 0.316376 0.508856 0.184331 0.380712 -0.485885 0.498911 -0.022561 -0.082082 0.032491 0.276119 -0.350848 -0.012569 -0.039983 -0.057154 -0.211616 0.084331 -0.110169 0.196112 0.401323 0.065585 -0.066073 -0.123233 -0.482354 -0.131009 0.082709 0.365988 -0.359241 -0.679214 -0.335569 0.399129 0.202858 0.209822 0.023745 0.126782 0.443317 -0.088560 0.274073 0.252146 0.182487 0.266235 -0.314762 0.125818 -0.078915 -0.474896
2567 0.512593 0.614644 -0.234751 0.081657 0.402885 -0.338365 -0.356956 -0.367989 -0.272673 0.002829 0.027765 -0.425616 0.672561 -0.230505 0.128139 0.236521 0.101389 0.057400 -0.023998 -0.069947 0.561200 0.357760 -0.158673 0.187801 -0.820957 0.148358 0.227978 -0.345646 0.640256 0.305539 -0.248070 -0.154746 0.252441 0.438953 -0.376979 0.165406 -0.024482 0.455331 0.029903 0.031908 0.320864 0.302280 0.221794 0.059867 -0.476302 -0.040617 0.266930 -0.220612 0.132192 -0.490200 0.852051 0.170544 -0.043773 0.412071 0.069185 -0.403222 0.334676 -0.050641 0.151381 -0.396457 -0.137112 -0.266051 0.439208 -0.379650
35843 -0.017283 -0.329820 -0.029076 -0.001654 -0.146215 0.274683 -0.296370 -0.106274 0.552024 -0.153390 -0.155477 -0.198283 0.121863 -0.124714 -0.470519 0.312951 0.599293 -0.228624 0.244414 0.381637 0.323406 0.369968 -0.487423 0.829416 -0.182075 -0.268458 -0.547912 -0.171086 0.389812 0.399757 -0.295825 -0.012176 -0.384321 0.192269 0.224478 0.111037 0.096165 0.360129 0.302882 0.666435 0.019170 0.681036 0.423386 -0.148722 0.418369 -0.134137 -0.034247 0.228219 -0.123723 0.058557 0.146309 0.253742 -0.133424 -0.073725 0.268118 -0.077996 -0.090112 -0.088038 -0.037185 -0.517298 -0.724759 -0.103116 0.347235 0.255711
7533 0.673447 0.585755 -0.116119 -0.281019 -0.495753 -0.051621 0.217804 0.965950 0.947061 0.433787 -0.674566 -0.227675 -0.236245 0.103191 -0.116231 0.151027 -0.001811 -0.115256 0.281353 0.393882 0.077890 -0.136827 -0.013212 -0.098506 0.419342 0.679209 0.159533 0.024366 0.193006 0.834679 -0.241463 -0.180037 0.181506 -0.180772 -0.508079 0.414915 0.289474 0.064692 -0.032581 0.039588 -0.132170 0.280916 0.292907 -0.090281 0.189398 -0.067287 -0.132296 -0.537781 0.004938 -0.454422 0.343356 0.512024 -0.361721 0.410240 0.053898 0.458034 0.008768 0.006794 0.623836 -0.108882 -0.174003 0.162510 0.537426 0.191717
67382 -0.418294 0.121383 -0.396317 0.190647 -0.447411 -0.081202 0.062816 0.188157 0.170703 -0.070450 -0.192365 -0.302965 0.041729 -0.388100 -0.023781 -0.087660 -0.108212 0.051647 -0.670677 0.491957 0.380026 0.585447 0.281798 0.347749 -0.469975 -0.176695 -0.264103 -0.377644 0.231832 0.581556 -0.163962 0.039790 -0.322071 0.206236 0.014186 -0.154912 0.307085 0.485016 0.116080 -0.059910 0.155254 -0.126767 -0.340608 -0.518476 -0.333035 -0.380562 0.031904 -0.627086 -0.258932 0.218131 0.279288 0.312438 0.061566 -0.069682 0.012855 0.090235 0.099491 -0.211518 0.112061 0.282744 -0.078919 0.432449 0.421718 -0.281419
12928 -0.443902 0.321792 -0.081906 -0.593426 0.598778 0.099615 -0.193510 0.276792 0.202275 -0.280559 -0.163155 0.074536 -0.000820 -0.279407 0.132862 0.389835 0.434265 -0.571682 0.055722 -0.035202 0.885503 -0.060727 -0.168042 0.715046 -0.463906 0.053369 0.052210 -0.295751 0.393729 0.543108 -0.046248 -0.273280 -0.364524 -0.373109 -0.088350 0.537348 0.492454 0.412904 -0.064930 0.254633 0.167195 -0.093183 0.345260 0.220234 -0.194130 0.124246 -0.527158 -0.041633 -0.147176 -0.348436 0.121142 0.165263 0.034116 0.039452 0.024065 -0.033376 0.205989 -0.049766 -0.022542 0.111911 -0.302852 0.134771 0.419673 0.042468
383 -0.074551 0.077070 -0.440094 -0.239168 -0.004709 -0.438233 0.023197 -0.127813 0.677659 -0.314560 0.004933 -0.297459 -0.147561 -0.522790 -0.205462 -0.011942 0.093177 0.119610 0.017315 -0.081078 -0.012374 -0.542339 -0.384426 -0.028192 -0.319387 0.450825 -0.017985 -0.135166 -0.022049 -0.001819 -0.026350 0.415416 0.019842 -0.415428 0.241352 0.394017 0.872400 0.476534 -0.182903 0.035120 0.458670 0.829946 -0.179987 0.363267 0.382899 -0.073161 -0.219880 -0.519507 0.318238 0.260221 0.632292 -0.141190 0.001057 -0.328683 -0.277897 -0.442418 -0.144945 -0.292213 0.486293 -0.563161 0.150215 -0.060595 0.285869 -0.216125
42182 0.237781 0.163834 -0.204464 0.011153 0.116782 -0.374812 -0.396737 0.729993 0.296962 -0.244784 -0.109893 -0.051150 0.545872 -0.355053 -0.089689 0.289812 1.006863 0.007867 0.219316 -0.163082 0.113449 0.417080 -0.126145 0.270744 -0.382926 0.293283 -0.385205 -0.469054 0.199481 0.006285 -0.075604 0.104822 -0.303615 0.118794 0.057087 -0.349427 0.492839 0.194433 0.081099 0.114575 -0.121117 0.282205 -0.337880 -0.158087 0.228514 0.252219 -0.606761 -0.474399 -0.168772 0.087506 0.046052 0.654276 -0.219819 0.123508 0.167909 0.106833 0.507473 0.340762 -0.174273 0.143345 -0.225674 -0.129309 0.309407 -0.302705
3972 -0.201005 -0.096455 -0.017524 0.188644 -0.414790 -0.096764 -0.228230 0.170211 0.520087 0.077091 -0.130820 -0.162923 0.117661 -0.749895 0.175355 0.049730 0.458903 -0.020537 0.025251 -0.280778 0.684693 0.130388 -0.010296 -0.307515 -0.201412 -0.183648 -0.049454 -0.052917 0.321754 0.568086 -0.050811 -0.100465 -0.039445 -0.091826 -0.184127 0.127815 -0.088103 0.124399 -0.217220 0.488205 0.241610 0.172096 -0.009536 -0.226707 0.066440 0.180861 -0.069259 -0.001113 -0.274050 0.275530 0.561568 0.132393 0.064190 -0.003308 0.946399 -0.084153 0.466969 -0.230385 -0.020312 0.040758 0.675202 0.362222 0.575746 -0.531823
16801 0.192741 -0.275157 -0.075918 -0.325188 -0.174164 -0.292069 -0.164238 0.427827 0.059566 -0.035957 0.032004 -0.158238 0.548096 -0.474249 -0.093488 0.747116 0.588476 -0.034205 -0.173080 0.200827 0.274640 0.780960 0.551072 -0.242504 -0.166892 0.329314 -0.298683 -0.250216 0.208466 -0.011742 -0.310643 -0.080152 0.119411 0.135814 -0.140414 0.354742 0.155143 0.099037 0.435112 0.457453 -0.022693 0.312720 -0.495472 -0.051973 -0.342109 0.261713 -0.544432 -0.433234 -0.121380 0.365690 0.134912 -0.725148 0.272089 0.250952 0.340639 0.061836 0.545321 0.378207 0.241082 -0.179795 -0.115722 -0.100504 0.022671 -0.107573
35375 0.346639 -0.129151 0.111205 0.121386 -0.495500 0.263878 0.551749 0.275211 0.657382 0.000082 -0.409587 0.024109 0.469004 -0.310596 -0.432402 0.007517 0.035033 -0.345574 -0.237702 0.138792 0.133989 -0.141335 -0.537537 0.399802 -0.054880 0.033118 -0.285617 0.285587 0.441680 0.007222 -0.286086 -0.553297 0.214993 0.028810 -0.435882 -0.040522 0.078963 0.332205 -0.159707 -0.267042 -0.127056 0.112160 0.167253 -0.040154 0.260674 0.112659 0.071083 -0.707661 -0.185493 0.005286 0.588506 -0.172050 0.341546 0.105729 0.324069 0.516513 -0.130427 -0.072456 0.101936 -0.330203 -0.937654 0.087152 0.527693 0.168431
20385 0.147451 -0.221746 -0.042419 -0.183123 0.019868 -0.205141 0.257648 0.494543 0.379332 -0.030825 0.055132 -0.062186 -0.120867 -0.261730 -0.045323 0.341027 0.483701 -0.097493 -0.772264 0.210457 0.438276 0.054944 0.335374 0.335273 -0.055444 -0.137455 -0.232594 -0.207623 -0.069579 -0.040563 -0.191210 -0.124574 -0.128208 -0.316428 -0.484279 -0.281319 0.355119 0.276441 0.122839 -0.284004 0.613442 0.391266 -0.306195 -0.042824 0.036766 0.166182 -0.142602 -0.201394 -0.137961 0.348344 0.230025 0.664972 0.415363 -0.003719 0.470371 -0.156227 0.257734 -0.099788 -0.301336 0.616746 0.012550 0.333630 0.556541 -0.331140
81405 0.161173 -0.161853 -0.394901 0.118880 0.217559 -0.190554 -0.134543 0.268084 0.103617 -0.012461 0.113806 0.292902 0.303555 -0.756364 -0.115070 0.417394 0.253876 -0.187977 -0.230465 0.290100 -0.104379 0.185745 -0.055186 -0.033866 0.120193 -0.373999 -0.061054 -0.286211 -0.069341 0.148793 -0.155236 -0.028938 -0.026095 -0.284996 -0.202549 0.137925 0.011494 0.860367 0.184681 0.286315 0.140224 -0.296178 -0.141942 -0.041249 -0.363101 -0.061420 -0.113783 -0.013639 -0.084938 -0.123851 0.181469 0.279190 -0.169005 -0.121656 0.561039 0.027217 0.353512 -0.266139 -0.065430 -0.623794 0.217844 0.937292 0.426492 -0.480400
110903 -0.103759 -0.161688 -0.528135 0.195387 -0.199838 0.043157 -0.004151 0.546402 0.177422 -0.292457 -0.359166 0.001100 0.580305 -0.469660 -0.129095 0.098300 0.293759 0.048596 -0.177534 0.112900 0.244839 0.056232 0.329321 0.118068 -0.168890 -0.052414 -0.072766 -0.242965 0.262811 0.434660 -0.130120 -0.200236 -0.121613 0.174349 -0.007569 -0.200887 0.520151 0.324854 0.466542 0.243576 -0.103192 0.080097 -0.235401 0.063873 -0.050904 0.281985 -0.267482 -0.480483 -0.449922 -0.113521 0.317608 0.139025 -0.148682 0.151627 0.592014 0.037759 0.486016 0.396783 0.244633 -0.031936 -0.135577 0.056710 -0.337373 -0.349108
10179 -0.019202 0.584128 0.417755 -0.487028 0.561932 -0.092744 -0.134068 -0.345227 -0.125750 0.016789 -0.236566 -0.091948 -0.139512 -0.513621 0.095971 0.281081 0.750162 -0.316454 -0.041780 0.197778 0.123701 -0.101623 0.049953 -0.013734 -0.229540 0.117916 -0.432630 -0.249748 0.941483 0.650661 -0.282356 -0.552236 -0.342915 0.111240 -0.118731 0.101277 -0.335450 0.659752 0.333409 0.039340 0.325509 0.086574 0.236002 -0.012070 -0.262737 0.036951 -0.135296 -0.108328 -0.001880 0.113052 0.215193 0.120269 -0.024928 0.076027 0.554738 -0.350736 0.327451 -0.112805 0.171141 -0.144435 0.207465 0.141460 0.279172 -0.167415
57105 0.423820 0.160823 -0.188534 -0.105608 -0.435649 0.003415 0.115255 0.759556 0.426366 -0.031678 -0.617230 -0.058439 0.153879 -0.188024 -0.274358 -0.106168 0.312089 -0.442693 -0.396800 0.084125 0.387657 -0.502753 -0.068743 0.255699 0.053857 0.100688 0.376309 0.013654 0.251130 0.441663 -0.243275 -0.722960 0.324250 -0.329102 -0.310756 -0.149394 0.098617 0.169083 0.043994 -0.085054 -0.060254 0.618402 0.142039 0.426071 -0.001792 0.306823 -0.102460 -0.833144 -0.249719 0.184547 -0.044574 0.315752 -0.272315 0.171796 0.321615 0.045736 0.114547 -0.079011 0.341011 -0.436060 -0.463813 0.145819 0.293049 0.235867
42172 -0.049662 0.152103 -0.219082 -0.477643 -0.263633 -0.113339 0.086893 0.331593 0.422055 -0.496819 0.066739 -0.001440 0.355549 -0.379293 -0.286097 0.545467 0.417897 0.197086 -0.307745 0.139891 0.433367 0.501698 -0.004161 -0.082442 -0.338590 0.315228 -0.392194 -0.301049 0.055665 0.227256 0.013894 0.173828 -0.038670 0.102246 -0.048767 0.205608 0.082306 0.462145 0.303600 0.068432 -0.131929 -0.003711 -0.307963 0.151546 0.007437 -0.039895 -0.398439 -0.454331 -0.051762 0.337405 0.374006 -0.046354 -0.086623 0.117405 0.142966 0.114934 0.460821 0.243209 -0.009284 -0.336357 -0.111646 0.227437 -0.230743 -0.568066
103447 -0.440588 -0.215319 -0.227356 -0.378724 -0.130785 -0.681395 0.027406 0.245331 0.386870 -0.191760 -0.065497 -0.112885 0.224764 -0.443429 0.173750 0.052685 0.219986 -0.138882 -0.670093 0.078586 0.270722 0.184394 0.214071 0.161988 -0.393697 0.466036 -0.024188 -0.211614 -0.025069 0.093894 -0.062006 -0.065725 -0.064334 0.143553 0.073478 -0.256605 0.013501 0.256494 0.736617 0.073539 -0.303814 0.241875 -0.516964 0.150343 0.299053 0.301056 -0.052680 -0.497292 -0.563613 -0.041251 0.339677 0.206065 -0.396334 0.477738 0.479763 0.481962 0.713691 0.193245 0.324339 -0.011885 -0.096895 -0.053380 0.314525 -0.087000
35729 0.434045 -0.140190 0.030704 0.067792 -0.208883 -0.369220 -0.046345 0.191823 0.639883 -0.210853 -0.097930 -0.274813 0.271976 -0.483946 -0.165080 0.237459 0.076898 -0.112327 -0.288586 0.121647 0.066537 -0.093375 0.087129 -0.096849 -0.387343 0.366438 -0.377376 -0.272637 0.034349 0.383917 -0.196589 0.216655 0.119820 0.156444 -0.052511 -0.089321 0.501990 0.466444 0.654067 0.198566 0.196160 0.105587 -0.301188 -0.047759 0.089085 0.162546 0.340491 -0.050821 0.236698 -0.050441 0.224682 0.017548 -0.222315 0.233818 0.418270 -0.351845 0.383345 0.025639 -0.109810 0.387279 -0.505369 0.412533 -0.341893 -0.636287
27705 0.364625 -0.071299 0.059382 -0.084605 -0.719058 0.371755 -0.143190 0.111484 0.319539 0.300475 -0.360376 0.142141 -0.021665 -0.664048 -0.101558 0.436325 0.308331 -0.304689 -0.118355 0.141007 0.200750 -0.088521 -0.435227 0.169758 -0.053248 0.246066 -0.394453 0.327661 0.196119 0.097694 -0.066698 -0.516311 0.349903 -0.184630 -0.201326 -0.010319 0.247968 0.437853 -0.075957 0.048664 -0.025455 0.282268 0.073962 -0.081468 0.307226 -0.232443 0.109399 -0.705829 -0.346574 0.193932 0.168947 0.153850 0.111977 -0.070499 0.028699 0.329595 -0.021330 0.034997 0.521446 -0.269632 -0.778008 0.271635 0.400270 0.470815
50901 -0.033902 0.020207 -0.564908 -0.460508 -0.318675 -0.219935 0.324413 0.321138 0.345717 0.423938 -0.407077 0.336687 0.345837 -0.449033 -0.568514 0.470394 0.335199 -0.039747 0.241151 0.483160 0.073510 0.324075 -0.021077 0.247541 -0.308855 0.001652 -0.407048 -0.053720 0.390339 0.283926 -0.279403 -0.010030 0.599058 0.204394 -0.399213 -0.253613 0.054808 -0.052830 0.082966 -0.190699 0.514181 0.166794 -0.360445 0.176963 -0.234844 0.489585 -0.411630 -0.250814 0.420487 -0.143367 0.200223 0.442773 0.203526 -0.162969 -0.024695 -0.023772 -0.560332 0.284407 0.022852 -0.519095 -0.529235 0.391766 0.170334 -0.403102
39124 0.280120 0.183476 -0.219882 0.105372 -0.510924 -0.462634 -0.050877 0.222683 0.571882 0.195203 -0.940199 -0.324657 0.085275 -0.202417 -0.421672 0.169135 0.201658 -0.303669 -0.473431 0.138158 0.135532 -0.224847 -0.344340 -0.090330 0.013803 0.049995 -0.123242 0.042814 0.329575 0.214964 -0.490745 -0.577828 0.221905 0.198017 -0.512566 0.263404 0.163241 0.023191 -0.080450 -0.282522 -0.221179 0.399327 -0.006841 -0.083020 0.234161 -0.115150 0.162481 -0.658856 -0.382620 0.139366 0.071046 0.211229 0.335322 0.336428 0.173361 0.140852 -0.134581 -0.251355 0.200099 -0.454594 -0.692658 -0.132306 0.420390 0.319339
32972 0.481167 0.092525 0.151827 0.119668 -0.651698 -0.152152 0.036062 0.437612 0.765785 0.091921 -0.187845 -0.140305 0.073783 0.070488 -0.382632 -0.058519 0.596766 -0.517042 -0.457042 0.120113 -0.004718 -0.416948 -0.534300 -0.061131 -0.099190 -0.039558 -0.221162 -0.007175 0.366747 0.663270 -0.538874 -0.574210 0.387477 -0.129568 -0.279593 0.017637 0.234848 0.519471 -0.300133 -0.331030 -0.118382 0.269590 0.001060 -0.267247 -0.110953 0.226757 -0.014519 -0.776371 0.080198 -0.008101 -0.068643 0.092500 0.230403 0.299565 -0.127896 0.336026 -0.251976 0.115209 0.138121 -0.538480 -0.145255 0.367148 0.622938 0.061789
27483 -0.295585 0.031471 -0.147652 -0.309059 -0.215945 -0.033785 -0.249846 0.180123 0.777373 -0.683936 0.112297 0.298259 0.307771 -0.341970 0.145343 0.337059 0.106455 -0.336298 -0.200773 0.037887 0.057692 0.128986 -0.148539 0.054881 -0.489422 0.182914 -0.218409 0.152681 -0.232579 0.299645 0.072774 0.156215 0.018564 0.074174 -0.161959 0.279203 0.417283 0.623324 0.679261 0.620959 0.044331 0.139229 0.388730 0.225902 -0.074208 0.225716 0.100703 -0.114225 -0.560894 -0.054419 -0.057860 0.212729 -0.164672 -0.106949 0.139013 0.201404 0.492144 0.019165 -0.107158 0.107797 -0.066988 0.226216 0.489803 -0.527574
56968 0.333809 -0.093565 -0.522701 0.177298 -0.334340 -0.224409 0.429668 0.627118 0.232572 -0.363100 -0.423041 -0.250781 0.447728 -0.525683 0.323072 0.389320 0.403402 0.149560 -0.187009 -0.081510 0.498431 0.327226 -0.073327 -0.018416 0.180936 0.278371 -0.138175 -0.069452 0.357188 -0.005353 0.207849 0.058281 -0.075602 0.209619 0.239618 -0.182691 0.444050 0.316292 0.186456 0.193910 -0.162977 0.177907 -0.089099 -0.253442 -0.160938 0.289646 -0.382053 -0.176302 -0.211174 -0.013348 0.190789 0.141930 -0.316961 0.394860 0.547192 -0.269303 0.817984 0.399541 0.226200 -0.027405 -0.059368 0.386814 -0.270706 -0.368869
5193 0.085857 -0.109385 -0.556075 0.294560 -0.066904 -0.307483 -0.125230 0.030167 0.612055 0.245372 -0.215165 -0.222698 0.088157 -0.787712 0.714679 0.230892 0.401994 -0.347499 0.041580 0.135654 0.198289 0.072864 -0.135045 0.374977 -0.779818 0.003519 -0.123685 -0.026583 0.157265 0.096944 -0.552703 -0.216531 -0.130041 -0.443688 -0.329659 -0.033007 0.650495 0.513827 -0.026171 0.045593 -0.072510 0.094142 0.345499 0.192322 0.383974 0.187180 0.010162 -0.438110 -0.064966 -0.227573 -0.094323 -0.455141 -0.624708 0.230817 0.125346 0.599266 0.039819 -0.068010 -0.453937 0.035945 0.373614 0.246822 -0.029815 0.118619
49179 0.436575 -0.143554 -0.312275 -0.309564 -0.684430 -0.121287 0.284766 0.577896 0.408931 0.039795 -0.440366 -0.118537 0.011356 0.196842 -0.424709 0.357921 -0.178993 0.012057 -0.294076 0.302974 0.390093 -0.013987 -0.040567 -0.077187 -0.358756 0.443771 0.149849 0.114230 0.138558 0.374859 -0.561672 -0.706918 0.197524 -0.227703 -0.332455 0.108416 0.047491 0.274056 -0.010304 -0.151274 -0.331514 0.315992 -0.144620 0.050086 -0.031175 0.342368 -0.447665 -0.698386 -0.092308 -0.037116 0.340496 -0.010942 0.195999 0.377789 0.081006 0.197386 -0.115649 -0.022546 0.176576 -0.316254 -0.278284 0.212244 0.443275 0.167982
14588 0.591563 0.325843 0.030199 0.036330 -0.623627 0.108324 0.172780 0.140049 0.499732 -0.115762 -0.379678 -0.256264 -0.023908 -0.383422 -0.103603 0.039866 0.332792 -0.259422 -0.378098 0.413300 0.297342 -0.644585 -0.458145 0.054888 0.012781 0.237038 0.038615 0.275408 0.720087 0.279977 -0.151077 -0.431125 0.445026 -0.384915 -0.182174 0.167309 0.314431 0.452371 -0.009753 0.082426 -0.323043 0.665222 0.047364 0.355598 0.071934 0.120569 -0.184600 -0.875933 0.151903 0.064431 0.305845 -0.019522 -0.095175 0.015114 0.230937 -0.077389 -0.603956 -0.340029 0.214983 -0.588790 0.004346 0.208947 0.223631 0.386311
14957 0.334926 -0.226792 -0.149777 0.208564 -0.026407 0.077582 0.309714 0.192429 0.406741 -0.068693 -0.350665 -0.279325 0.342216 -0.855358 0.824840 0.018479 0.434236 0.255114 -0.133479 0.526695 -0.238590 0.102077 0.016984 -0.251108 -0.167204 -0.219858 -0.200176 -0.265999 -0.233677 0.291509 0.300972 -0.030252 -0.416668 0.022898 -0.547488 0.358759 0.519483 0.443737 0.602369 0.261238 0.353278 -0.046423 -0.280870 0.152544 0.043617 0.240971 -0.139967 0.072256 -0.194469 -0.309361 0.251332 -0.293579 0.298827 0.170675 0.579232 -0.323972 0.253261 0.204600 0.046270 -0.396234 -0.492124 0.562337 0.412794 0.023150
553 -0.274593 0.500447 -0.397069 -0.093616 -0.176352 -0.025624 -0.293803 -0.047921 0.421065 0.151073 0.059216 -0.465405 -0.280107 -0.939568 0.304543 0.187612 0.163611 0.064139 -0.212612 -0.690366 0.086819 0.703553 0.281107 -0.105696 -0.253338 -0.198374 -0.475633 -0.229125 0.469107 0.024007 -0.426717 0.040509 -0.028037 0.094090 -0.236704 0.115458 0.075804 0.433385 0.091468 0.202852 0.316099 0.658172 0.039181 -0.886631 -0.296856 0.052397 0.184421 0.177853 -0.125999 0.107307 0.357264 -0.075256 0.278714 -0.020391 0.304531 0.213600 0.236584 -0.127593 0.027888 -0.158078 -0.018187 0.448250 0.451046 -0.230889
27723 -0.087145 -0.046724 -0.159819 -0.119491 0.017641 0.105939 0.324527 0.138312 0.769117 -0.278347 0.027081 0.406840 0.754019 -0.683104 0.037090 -0.230467 0.327531 0.065703 -0.646773 0.373929 0.000346 0.273100 0.017620 0.449575 -0.344504 0.235453 -0.193719 -0.170148 0.077523 0.297469 -0.315228 -0.332778 -0.332635 0.129557 -0.264637 -0.028906 0.168149 0.477804 0.548310 0.141176 -0.209387 -0.036423 -0.224850 -0.245409 -0.376585 0.155977 -0.304679 0.252655 -0.280997 -0.128305 0.651786 0.011699 -0.005364 0.344269 -0.381144 0.349186 0.289660 0.081517 -0.214329 0.001269 -0.208023 0.339300 0.100509 -0.810179
33833 -0.122893 0.652808 0.169744 0.553716 0.083216 -0.111450 -0.354340 0.536237 1.113741 0.197577 -0.550137 0.124948 0.280339 0.214564 0.003511 -0.054929 0.546940 -0.563325 -0.160164 0.413907 -0.272566 0.482586 -0.292979 -0.185198 -0.442016 0.745902 -0.089462 0.240303 -0.135781 0.203484 -0.117171 -0.897647 0.196333 -0.400325 -0.050371 -0.159289 0.367830 0.344853 -0.278207 0.176788 -0.002632 -0.040551 -0.652067 -0.037409 0.085019 -0.112516 0.202971 -0.316573 -0.334212 -0.152392 0.530582 0.059808 -0.071710 0.150912 -0.185528 0.170335 0.473199 0.271424 -0.063533 -0.458581 -0.157719 0.282468 0.389530 -0.233719
44086 0.398538 0.178948 -0.321314 -0.103846 -0.346207 -0.255736 -0.552278 0.138782 1.116501 0.055027 -0.412261 -0.117930 0.353897 0.180511 0.182864 0.356284 0.077076 -0.422400 0.080559 -0.068214 0.413891 -0.419957 -0.068975 0.264321 -0.155584 0.007748 0.059933 0.064632 0.279744 0.470939 -0.028060 0.142575 -0.347890 -0.358800 -0.233194 -0.078272 0.303289 0.329067 0.315483 0.636144 0.208953 -0.158195 -0.191076 0.364548 -0.083568 0.036717 -0.706807 -0.414952 -0.547163 -0.225041 0.048896 1.018033 0.189824 0.099091 0.181636 0.338955 0.474938 0.242152 0.008260 0.192673 -0.107458 -0.151452 0.450941 0.150803
182906 0.679797 0.369537 -0.295656 -0.194123 -0.681108 -0.265639 0.214574 0.258761 0.565791 0.211698 -0.397436 -0.086162 -0.070811 0.016215 -0.393619 0.200689 -0.074164 -0.045964 -0.370998 0.435403 -0.026081 0.071216 -0.270750 0.107904 -0.189810 0.376489 -0.011280 0.295400 0.276080 0.342776 -0.504128 -0.499906 0.187158 -0.041188 -0.405390 0.045353 -0.108231 0.316518 0.078694 -0.141136 -0.225248 0.117226 0.005159 0.159525 0.249863 0.580517 -0.612224 -0.604376 -0.104953 0.111985 0.191069 0.180088 -0.007740 0.074239 -0.011003 0.134809 0.048408 0.095039 0.106196 -0.402513 -0.466982 0.119389 0.254844 -0.072966
37532 0.096741 0.204202 -0.294778 -0.186368 -0.485590 0.262929 0.075149 0.448199 0.416600 0.488201 -0.297728 -0.225871 -0.171329 -0.063284 -0.088663 -0.137569 0.614144 -0.346767 -0.301996 0.266511 0.281769 -0.150712 -0.378230 0.301174 0.359626 0.371207 0.104312 0.040442 0.470664 0.746034 -0.494533 -0.390640 0.694837 0.169956 -0.321248 -0.076083 0.034085 0.486182 0.066542 0.185718 0.060581 0.347812 0.190069 -0.024711 -0.440788 0.458103 -0.368134 -0.449757 0.252753 0.038096 0.103294 0.118034 0.258026 0.366372 0.122249 0.213731 -0.396307 -0.008559 0.422571 -0.552497 -0.127694 0.384315 0.082803 0.224064
14577 -0.080892 0.422456 0.024671 0.112967 -0.461820 -0.290258 -0.042932 0.911957 0.816603 0.285034 -0.649852 0.069092 -0.171773 0.316855 -0.304275 0.433505 0.119899 -0.274904 -0.109755 0.188912 0.370547 -0.588320 -0.662302 -0.459578 -0.328327 0.182802 -0.327489 0.137631 0.467877 0.748526 -0.708166 0.148598 0.192100 -0.221339 -0.265884 0.311992 -0.122999 0.172699 0.122605 -0.039755 -0.082017 0.209256 0.053138 -0.310072 -0.325723 -0.114519 -0.377088 -1.197867 -0.150013 -0.125402 -0.012244 -0.118711 -0.025405 0.298563 -0.153416 0.419776 -0.478926 -0.131425 0.326812 0.013410 -0.508381 0.559946 0.317600 0.247449
22470 -0.327743 0.562680 -0.036202 -0.530604 0.001459 -0.495432 -0.231198 -0.296077 0.194634 -0.301231 -0.280559 -0.390698 -0.330834 -0.616896 0.454428 0.299724 0.152272 -0.313343 0.187536 -0.321270 0.054096 -0.126353 0.101754 -0.190832 0.161290 0.171519 -0.564509 -0.314667 0.454799 0.380702 -0.208744 -0.413635 0.170970 -0.152052 -0.236066 -0.152413 -0.328429 0.589913 0.315227 -0.046749 0.312881 0.351964 -0.177472 -0.003437 0.180281 -0.232945 -0.154073 0.059633 -0.706101 0.147085 0.237609 -0.552699 -0.044869 0.069867 0.434301 -0.524906 -0.137190 -0.356568 -0.063501 -0.247710 -0.287481 0.658650 0.458131 -0.828215
98204 0.073442 -0.000374 -0.481732 0.049277 -0.381351 -0.039218 -0.068625 0.116686 0.308067 -0.041416 -0.387623 -0.200605 0.323969 -0.734257 0.235118 -0.010242 0.203470 0.219604 -0.752550 0.392478 0.269451 0.048497 -0.203029 0.446194 -0.444926 0.096479 -0.298415 -0.108689 -0.303821 0.433187 -0.183510 -0.080654 -0.107885 0.010153 0.166035 -0.169819 0.203173 0.427743 0.249453 -0.086988 -0.113756 -0.314610 -0.024514 -0.026528 0.017315 0.255844 0.163209 -0.463767 -0.463322 0.328076 0.665048 -0.157614 -0.301452 0.133286 0.339557 0.281973 0.449936 0.305873 0.035847 -0.062275 0.177808 0.234515 0.182827 -0.490075
19870 0.093869 0.002312 -0.374584 0.487357 -0.262553 0.093061 -0.594769 0.260972 0.390017 0.060025 -0.644158 -0.665970 0.377523 -0.198288 -0.030830 0.336931 -0.054118 -0.069745 -0.389159 0.269773 0.063049 -0.276593 0.247140 0.357880 -0.340608 -0.316530 -0.479487 0.072748 -0.214708 -0.183278 -0.560530 -0.071584 -0.016156 -0.050116 0.073267 0.111092 -0.077849 0.055722 0.364839 0.283342 0.340632 0.349297 -0.208002 0.446709 -0.206175 -0.386908 -0.634009 -0.476653 -0.410339 -0.362960 0.462339 0.448259 0.213903 -0.296747 -0.019537 0.061626 0.252025 -0.284768 0.445825 0.480801 -0.296486 0.216486 0.551776 -0.378488
37502 0.450357 0.157221 -0.096396 -0.000789 -0.336238 0.311920 0.068516 0.674857 0.475854 0.318612 -0.447393 -0.140936 0.076948 -0.103772 -0.265244 0.021881 -0.012629 -0.614623 -0.231287 0.326931 0.337374 -0.574069 -0.453456 0.333773 -0.175840 0.175077 0.073390 0.202085 0.442237 0.635558 0.190889 -0.538839 -0.315410 -0.192656 -0.063477 -0.000295 0.344273 0.305575 -0.279198 0.059503 0.137277 0.761237 0.227483 -0.100333 -0.518735 0.019778 0.136237 -0.930468 0.138203 0.147033 0.140744 -0.118298 0.497811 0.529744 0.058698 0.614834 0.119158 0.367452 0.393308 -0.629565 -0.246542 0.222714 0.513636 0.424530
13820 0.142443 -0.275945 -0.199844 0.235894 -0.244291 0.090688 0.231116 0.114200 0.315289 0.129044 -0.549191 -0.462698 0.621924 -0.840668 0.356362 0.171330 0.462112 0.041461 -0.289760 0.239884 0.296645 0.429811 -0.276902 -0.421556 -0.442977 -0.277885 -0.358078 0.007006 -0.083462 0.239891 0.577501 0.230990 -0.225464 -0.086315 0.022337 -0.084028 -0.062902 0.345532 0.582088 0.294441 0.295770 -0.242175 0.312706 0.022652 -0.063502 0.147496 -0.015850 -0.252170 -0.343095 -0.086664 0.324539 -0.153122 -0.276534 -0.471998 0.585352 -0.298323 0.134865 -0.122651 -0.187956 -0.636121 -0.291772 0.673932 0.785214 -0.433893
3808 -0.308354 -0.094764 0.139361 -0.665477 -0.132440 0.082433 -0.189519 0.215817 0.075405 0.597067 -0.398718 0.032054 -0.034761 -0.227644 0.253309 -0.002521 0.313259 -0.271290 -0.255711 0.676856 0.415375 0.447332 0.356493 0.187575 0.092870 0.010771 0.361554 -0.375303 0.517603 -0.189142 -0.420753 0.167995 -0.179238 -0.310718 -0.068970 0.200211 0.361838 0.397513 0.288029 -0.107760 0.606048 0.433058 -0.117771 0.133962 -0.342663 0.503301 -0.133193 0.007409 0.398563 0.203208 0.192277 0.559676 -0.335884 -0.458293 0.532670 0.074747 0.084775 0.531122 -0.281791 -0.651842 -0.293418 0.755107 0.545178 -0.566983
27738 0.334306 0.058264 -0.132203 -0.005942 0.080859 0.026911 -0.304223 -0.198226 0.405923 -0.014607 -0.009141 -0.383279 -0.086442 -0.233236 -0.033958 0.511577 0.336060 -0.016779 0.094101 -0.132080 -0.139502 -0.145661 -0.714434 0.167143 0.627721 0.346835 0.238378 -0.093622 0.311250 0.524668 -0.096474 0.230031 0.405311 0.464296 0.034786 0.281336 0.048249 0.432676 0.061696 0.007211 0.074731 0.408005 0.059827 0.278423 -0.306231 0.450036 0.016930 -0.705144 -0.203367 0.406929 0.121099 0.560816 0.228180 0.818268 -0.088825 0.288580 0.353491 0.292896 -0.110860 0.018195 -0.738580 0.516948 0.669573 0.351932
28951 -0.348640 0.382857 0.235264 -0.470726 0.067956 -0.430672 0.113436 -0.111042 0.525859 0.018295 -0.520998 -0.265529 -0.060934 -0.616240 -0.402496 0.389853 0.595359 0.315691 -0.122137 0.078281 0.697803 -0.094386 0.115228 0.110275 -0.494235 0.127535 -0.263639 -0.002054 0.449459 -0.060014 -0.612647 -0.055057 -0.053858 0.065264 -0.175018 -0.043672 0.103490 0.667457 0.552188 -0.191546 0.204537 -0.308340 0.153154 0.005123 0.343855 0.105196 -0.032411 -0.070861 -0.171745 0.089996 -0.026523 -0.027370 -0.105133 0.569624 0.352552 -0.071283 0.595830 0.031600 0.498932 -0.093626 0.339335 0.324683 0.048322 -0.046961
14075 0.225917 0.013716 -0.042706 0.196070 -0.154880 -0.346841 -0.061040 0.312674 0.522885 -0.103426 -0.613777 0.537729 0.057736 -0.080853 -0.248051 0.552174 0.061389 0.016018 -0.678840 0.191721 0.323869 -0.415389 -0.436869 -0.291018 0.424926 0.374419 0.090189 0.091122 0.471544 0.396373 -0.308155 -0.050350 0.771431 -0.059099 0.153461 -0.055129 0.374713 0.646535 0.564769 -0.230831 -0.284911 0.757830 0.460579 0.052432 -0.364568 -0.370012 0.014750 -0.933600 -0.148701 0.203548 0.041385 0.078119 -0.341737 0.150830 0.056187 0.054518 0.057192 -0.402474 0.690070 -0.126799 -0.960146 0.174651 0.472366 0.377425
468 0.201677 -0.636257 -0.421359 -0.355450 0.227391 -0.300195 0.711351 -0.288653 0.753147 0.094301 -0.343779 -0.036958 0.037171 -0.749475 0.688377 -0.025156 0.018088 -0.042398 0.156746 0.214219 0.517161 0.384435 -0.448182 0.124853 -0.320019 0.297068 -0.228546 0.036765 -0.373292 0.186156 -0.111792 -0.059943 -0.144712 0.153800 -0.290017 0.192338 0.268308 0.248324 0.082538 0.188964 0.343611 -0.223521 -0.077958 -0.311489 -0.491941 -0.190840 -0.190281 -0.412300 0.152954 -0.593158 -0.143254 0.346089 0.138028 0.353854 0.324062 -0.385118 0.209188 0.013668 0.383564 -0.492418 -0.021282 0.114429 0.365673 -0.421781
30225 0.677956 0.079607 -0.184841 -0.130298 -0.567216 0.166641 0.229938 0.276422 0.718630 -0.046854 -0.323745 -0.221689 -0.071441 0.201728 -0.337223 0.215201 0.265572 -0.158000 -0.446972 0.441981 -0.171063 -0.184564 -0.347349 -0.238342 -0.218467 0.103280 0.054698 0.095458 0.766164 0.758606 -0.279011 -0.473142 0.230843 0.171025 -0.611542 0.104383 0.300970 0.299915 0.232482 -0.278170 -0.178475 0.278849 -0.051364 0.051080 0.364637 0.166992 -0.287086 -0.516161 -0.409802 -0.359055 0.111828 0.010208 0.199359 0.314306 0.135125 0.147627 -0.080380 0.234609 0.032353 -0.441900 -0.351598 0.187153 0.299338 0.125804
45605 0.116669 -0.586853 -0.433511 0.291537 0.227368 0.139166 0.339649 0.070436 0.712498 -0.165713 -0.616274 -0.048383 0.086190 -0.043741 0.606595 0.394436 0.212027 0.023719 -0.032597 0.114505 0.347469 -0.028825 -0.559834 0.768766 -0.389940 -0.066775 -0.529643 0.110437 0.554173 0.152149 0.334642 -0.077711 -0.113322 0.122510 0.037023 0.187715 0.277709 0.215074 0.414414 0.231343 -0.019573 0.229733 0.187898 0.079229 -0.134264 -0.416792 -0.577407 -0.099804 -0.160955 -0.242631 0.068401 0.474968 0.372985 0.160749 0.209268 0.234698 0.461821 0.192037 -0.113354 0.071331 -0.222499 0.223703 0.206514 -0.439079
4336 -0.066391 -0.032897 -0.461819 -0.086706 -0.443069 0.441025 0.308827 0.326216 -0.032568 0.291076 0.045510 -0.092275 -0.284171 -0.157653 0.083675 -0.014377 0.180547 -0.007852 0.207620 -0.175633 0.387424 0.431650 -0.078825 0.363660 0.082373 0.268282 -0.489303 0.007880 0.141774 -0.242540 0.121924 -0.218676 -0.250760 0.134889 -0.465178 -0.219687 0.156088 0.821473 0.304909 0.138931 0.556629 0.311951 -0.216227 -0.408568 -0.170604 -0.166138 -0.122620 -0.631073 0.140643 0.106094 0.761309 0.357617 -0.039794 -0.136414 0.634756 0.647813 0.703374 -0.455239 0.197382 0.395804 -0.270386 0.177726 0.320751 -0.442199
92274 0.062623 -0.010694 -0.243290 -0.132007 -0.348099 -0.174373 0.149661 0.483297 0.516497 -0.399172 0.243477 -0.123444 0.315770 -0.416490 0.138902 0.190270 0.432492 0.120841 -0.064245 0.164878 0.055534 0.167138 0.115587 -0.314005 -0.340600 0.139740 -0.379045 -0.264685 0.030253 0.353673 -0.040384 -0.074130 -0.220738 0.349580 -0.078841 0.360346 0.369406 0.331294 0.356599 0.307520 0.129892 0.373156 -0.395651 0.443918 -0.117201 0.411879 -0.079306 -0.092664 -0.433544 -0.078148 0.180376 -0.089649 -0.122366 0.173906 0.798111 -0.054566 0.290895 0.334256 0.330603 -0.199758 -0.102897 0.302417 -0.015028 -0.174680
9704 -0.315996 0.048314 0.050949 0.223849 -0.407144 -0.345622 0.227210 0.407144 0.130307 -0.247701 0.048633 -0.181279 0.166807 -0.474791 -0.204974 0.137682 -0.190349 0.250146 -0.391396 0.165048 0.309863 0.267876 0.447829 -0.229283 -0.500416 0.382770 -0.164490 0.061265 0.413055 0.487546 -0.337834 0.051619 -0.681628 -0.058190 -0.030834 -0.063656 0.376352 0.681308 0.553923 -0.106723 0.706001 0.144766 -0.526460 -0.080186 -0.258199 0.297006 0.294311 -0.577199 -0.281203 -0.273372 -0.022242 0.259781 -0.168415 -0.031120 0.376738 -0.161691 0.685509 0.077002 -0.239846 0.409508 -0.247882 0.198791 0.362795 0.024437
43725 0.115926 -0.321099 0.044466 0.071454 0.319377 0.089572 -0.281528 0.214838 -0.403081 0.501146 -0.357368 -0.082727 -0.026113 -0.472584 -0.064251 0.116585 0.354275 0.087106 -0.598261 0.435115 0.543884 0.779002 -0.090650 0.065308 -0.243273 0.092613 -0.006048 0.244453 -0.078427 0.316773 -0.618170 0.050817 -0.206638 -0.099927 -0.739341 0.232981 0.672130 0.780745 0.079553 -0.660826 0.674844 0.416860 -0.186678 0.075416 -0.055816 -0.306738 -0.145765 -0.044864 -0.605537 0.484081 0.125188 0.053162 0.238624 0.362993 0.412433 0.390862 0.129056 -0.340083 0.005849 0.358173 -0.260874 0.519898 0.229474 -0.486721
15210 0.084201 -0.583552 0.242874 -0.143945 0.229296 -0.054970 -0.151637 0.524189 0.192265 -0.210737 0.102515 -0.065911 0.277171 -0.348288 -0.001743 0.209045 0.081795 -0.017975 -0.213982 -0.228888 0.204484 0.323583 0.244726 0.317291 -0.505481 0.121771 -0.161674 -0.133351 0.198063 0.511979 0.004347 -0.475569 0.199630 -0.630894 -0.726124 -0.351498 0.435859 0.578336 0.511159 0.097851 0.886221 0.298410 0.142514 0.226010 0.057398 0.040977 0.232636 -0.181993 -0.396447 0.076458 0.309271 0.556226 -0.071154 -0.047167 -0.053417 -0.409248 0.357801 -0.066208 -0.282669 0.413964 -0.266408 0.303058 0.165589 0.034678
2280 -0.456801 -0.329136 -0.551162 0.096299 0.538711 -0.070474 0.303412 -0.431021 0.352262 -0.138504 -0.093521 -0.318496 -0.058291 -0.153566 0.233845 0.032963 -0.360691 -0.425724 0.027356 -0.006134 0.499387 -0.018337 0.203494 -0.182778 -0.233014 -0.354320 0.098694 -0.692509 0.357685 0.777092 -0.146361 -0.271516 0.114638 -0.260530 -0.556158 -0.462844 0.281941 0.685208 0.649017 0.078914 0.616890 0.410589 -0.520448 -0.321628 0.150082 -0.562407 0.280680 -0.319514 -0.350439 0.092738 0.707308 -0.024006 -0.015117 -0.032369 0.204309 0.002444 -0.051960 -0.335997 0.057626 -0.294672 -0.333925 0.024533 -0.047216 -0.524556
5335 0.526151 -0.355344 -0.285828 0.023145 0.137673 -0.877019 -0.379083 0.109532 0.685037 -0.417438 0.137910 -0.765537 -0.391531 -0.056584 -0.460499 0.093512 0.422440 -0.474982 0.004734 0.296532 0.372151 0.071444 -0.014764 0.378484 0.057948 0.027627 -0.315386 0.211963 0.165158 0.514680 -0.713598 0.231699 -0.481671 0.305949 0.084849 0.003178 0.484528 0.496870 0.549473 0.753184 0.459870 0.406408 0.269631 -0.251921 0.769008 0.055194 0.319256 -0.237066 0.384099 -0.019493 0.276945 -0.351708 -0.082499 -0.227642 0.146480 -0.549575 0.422195 -0.660079 0.014124 -0.333308 -1.100348 0.522679 -0.263241 -0.721323
47015 0.528455 0.110780 0.101626 -0.194686 -0.511524 0.005381 0.099006 0.221192 0.627814 -0.119111 -0.326395 0.067882 0.077363 -0.148760 -0.325445 -0.198944 0.420192 -0.407732 -0.239874 0.190931 0.139248 -0.054181 -0.422114 -0.337066 0.137535 0.487509 -0.165325 0.558989 0.660321 0.427655 -0.208405 -0.017704 0.386997 0.146178 -0.458767 0.178770 0.528933 0.511927 0.094674 -0.625349 0.017548 0.053482 -0.201430 -0.240840 0.452300 -0.329621 -0.088304 -0.890440 -0.075726 -0.122880 0.187601 -0.046043 0.212835 0.163358 0.019521 0.174930 -0.193776 0.385403 0.732190 -0.736410 -0.477697 0.277906 0.647680 0.416678
53508 -0.073091 -0.106088 -0.103725 0.076178 -0.222646 -0.182497 0.178007 0.463030 0.331836 -0.098543 -0.288576 -0.182652 -0.023086 -0.424726 0.251637 0.800230 0.138899 -0.003710 -0.460605 -0.012571 0.136903 0.342433 -0.285602 0.196940 -0.370411 0.355411 -0.383111 -0.460390 0.045486 0.492749 -0.182065 -0.205118 -0.281518 0.099654 -0.111493 0.015385 0.228729 0.001525 0.187366 0.310657 -0.269565 0.475559 -0.331271 0.571449 -0.005090 0.018789 0.148141 -0.156431 -0.216466 -0.240070 0.198048 0.558286 -0.062614 0.261604 0.612104 -0.088865 0.190996 0.047930 0.114742 0.095068 -0.106749 0.226042 -0.200580 -0.733780
4509 -0.238669 0.136609 -0.193479 -0.169687 -0.203719 -0.230852 0.231745 -0.000666 0.305531 0.104134 -0.383958 -0.045348 -0.112231 -0.678735 -0.236794 0.653784 0.275725 -0.092368 -0.197142 -0.325729 0.131398 0.384546 -0.143913 0.598361 -0.511103 0.027280 -0.369046 -0.004822 0.953542 0.141142 -0.027808 -0.047738 0.136972 -0.148669 -0.146263 0.178592 -0.117346 0.013603 -0.130467 -0.078797 0.430921 0.248224 0.113377 0.423694 0.210436 -0.284201 -0.018977 0.016911 0.090154 -0.231752 0.365039 -0.177217 -0.246249 -0.042769 0.868464 -0.420862 0.046780 0.290193 -0.104995 0.031458 -0.615661 0.410633 0.509053 -0.515463
4177 0.063931 -0.268032 -0.117847 0.091929 0.205175 0.275228 -0.206097 0.382211 0.592133 -0.251812 -0.185159 0.382239 0.217462 -0.714088 0.131579 -0.379744 0.237767 -0.039990 -0.162910 0.208555 -0.646356 0.599171 0.138004 0.181936 -0.444697 0.049305 -0.444782 -0.061741 0.278230 0.152816 -0.244908 -0.334245 0.295237 0.012682 -0.499113 0.078620 0.159414 0.998213 0.518050 0.344310 0.506177 -0.205045 0.158166 0.183845 0.094427 0.290475 0.000372 -0.233033 -0.027169 0.002673 0.207279 0.245004 -0.058628 0.247483 0.023855 -0.240136 0.183624 -0.081006 -0.144874 0.246641 -0.072469 -0.179894 0.427220 -0.362728
2662 0.265314 0.259225 -0.023466 0.366105 -0.013378 0.447463 0.118869 0.298735 0.055052 0.817658 -0.428128 0.174143 -0.433984 -0.734856 0.020214 -0.561761 0.211148 -0.223934 -0.057324 0.079518 0.657395 0.060396 0.107722 0.415444 -0.553992 0.407823 0.003774 -0.195756 0.413662 -0.145592 -0.423307 -0.152086 -0.394099 -0.511689 0.156717 0.549849 0.454664 0.489243 -0.028345 0.323088 -0.187569 0.242187 0.215206 0.309423 0.277418 0.336101 0.199515 -0.418659 0.271818 0.377413 0.498056 0.183630 0.280716 0.090858 0.179970 0.135756 -0.075269 -0.745647 0.128322 -0.174996 0.196390 -0.039158 0.354980 -0.729324
3994 -0.349828 0.056122 -0.392774 -0.190592 -0.536337 -0.398807 -0.261722 0.226776 0.704639 0.207764 -0.133567 -0.147192 0.311631 -0.391412 0.083461 0.439445 0.109094 0.072115 0.305916 0.178097 0.498345 -0.148876 -0.096231 -0.216277 -0.232816 0.068406 0.069454 -0.039494 0.164325 0.595930 -0.105954 -0.046632 0.140063 -0.154401 -0.059467 0.180862 -0.105923 0.420487 0.265622 0.496488 0.275806 0.116571 -0.002301 0.224481 -0.110619 -0.176759 -0.276363 -0.022757 -0.451311 0.023339 0.251456 0.235549 0.253250 -0.280563 0.761854 -0.130033 0.588988 -0.253612 -0.054347 -0.035881 0.434371 0.165720 0.214311 -0.492370
39889 0.065272 -0.119454 -0.121456 -0.045383 -0.433478 0.205318 0.011728 0.235551 -0.144512 -0.003994 -0.104133 -0.079181 0.262679 -0.666436 -0.164753 0.190863 0.011771 0.138392 -0.131827 0.509545 0.372358 0.266273 0.371652 0.189612 -0.388020 0.251957 -0.037913 -0.093325 -0.044536 0.372474 -0.295747 -0.260536 -0.340510 -0.130486 -0.237174 -0.106697 0.135934 0.814462 0.193574 0.057591 0.481518 0.231419 -0.685314 0.043499 0.028273 0.028375 0.132561 -0.718207 -0.536983 0.180795 0.538020 0.107544 0.003808 0.028959 0.474781 0.700855 0.274798 0.064106 -0.209369 0.491854 -0.237096 0.440619 0.257480 0.127422
13795 -0.195698 -0.752511 0.052814 0.223579 -0.721698 0.226514 -0.005994 0.007239 0.295105 0.299035 -0.183127 -0.061811 -0.465321 -0.718425 0.014773 0.096980 0.178921 -0.158743 -0.114092 0.261804 0.195822 0.349986 -0.051505 0.258936 -0.243634 -0.324770 -0.265891 0.109098 0.379559 -0.091271 0.028059 -0.019813 -0.041301 0.364234 -0.436465 -0.179087 -0.130888 0.868855 0.207056 -0.225535 0.347763 0.108323 -0.183056 -0.111573 -0.043247 -0.366214 -0.052037 -0.702648 0.130441 0.219544 0.958358 0.159638 0.203155 -0.176369 0.241728 0.142069 0.547382 0.103920 0.308828 0.205019 -0.367874 -0.089596 0.387668 -0.297081
7690 0.057832 0.137227 -0.234431 -0.759638 -0.032816 -0.311058 -0.086629 -0.198864 0.179709 0.045365 -0.815490 0.081936 -0.140581 -0.755845 0.203253 0.031120 0.532823 -0.670975 -0.239238 0.136424 0.306633 0.223704 0.893001 -0.507596 -0.269118 0.182850 -1.009601 -0.536772 0.862531 0.406928 -0.269037 0.168080 -0.489850 -0.316740 0.314713 0.138567 -0.210947 0.391479 -0.360737 0.066850 0.357806 0.179595 0.583938 0.118001 0.313427 -0.236675 0.138547 -0.132093 -0.300294 -0.201164 0.770777 0.076543 0.254781 0.640262 -0.142189 -0.361876 0.384461 0.208657 -0.243138 0.107535 -0.410217 0.465011 0.348485 -0.349660
2166 0.197989 0.063492 -0.069010 0.263534 0.234651 0.078489 0.362837 -0.387031 0.052927 0.505172 0.171378 0.125950 -0.033247 -0.709939 -0.097540 0.251292 0.636836 -0.872370 -0.314677 0.249187 0.190568 -0.501548 0.162826 0.350119 -0.345833 0.333635 -0.092375 0.019079 0.705539 0.207142 -0.172175 0.665311 0.679468 -0.155016 -0.278181 0.566366 0.005244 0.467416 -0.228955 0.555519 0.007833 -0.024980 -0.047239 -0.163519 0.378944 -0.358606 -0.257601 -0.475234 -0.360734 -0.448781 0.445110 0.064838 -0.179641 0.004130 0.262144 -0.620400 0.365761 -0.218924 0.396181 0.019412 -0.580267 0.594528 0.232997 0.550974
35352 0.535262 0.337496 -0.170904 0.198115 -0.847169 -0.162489 0.209099 0.545507 0.476249 0.440212 -0.104837 0.030318 -0.115975 0.069241 -0.152059 -0.516569 0.265768 -0.198113 -0.176015 0.492876 -0.195550 -0.173462 -0.308933 0.128342 0.009074 0.428703 0.104714 0.129993 0.673048 0.700346 -0.422092 -0.543800 0.252180 -0.300839 -0.223401 0.135503 0.430279 0.318118 0.201487 0.031816 -0.005681 0.461206 -0.127461 0.162267 0.076344 0.257974 -0.535952 -0.842745 0.233821 0.014948 -0.090347 -0.198739 0.404443 0.312173 0.406013 0.277733 -0.111141 -0.215169 0.206220 -0.473792 -0.272505 0.168838 0.266522 0.283564
2342 -0.300181 0.391837 -0.177262 0.235384 0.033361 -0.035737 0.207551 0.792507 0.502356 0.108204 -0.711656 -0.313108 0.005991 0.181333 0.458916 0.213149 0.158340 -0.001006 0.108283 -0.576572 0.153151 0.002524 -0.474873 -0.162754 -0.168386 -0.384816 -0.685472 -0.656097 -0.357185 0.306284 -0.372221 -0.444240 0.215467 0.377606 -0.294829 0.592482 0.475724 0.387024 -0.232630 -0.063984 -0.054855 0.434838 -0.005917 0.421114 -0.155423 -0.015826 0.360298 -0.598694 0.119682 0.206842 0.284001 0.559339 0.698343 0.347673 0.724271 -0.332665 -0.223369 0.156457 0.308231 -0.428182 -0.186208 -0.022179 -0.013851 -0.283516
4368 -0.080946 -0.006701 0.061607 -0.204737 0.253981 0.382621 0.079085 0.513986 -0.303246 0.258953 0.127243 -0.021007 -0.141229 -0.772096 0.357566 -0.310985 0.418193 -0.189860 -0.618905 -0.340997 0.122867 0.351835 -0.092096 0.418883 -0.438764 -0.501571 -0.287680 -0.030661 0.060451 -0.092225 -0.696754 -0.067206 0.442354 -0.138883 -0.590234 -0.176780 0.524294 0.214537 0.351478 0.345644 0.572266 0.564098 0.027041 -0.240861 0.436294 0.369126 0.251747 -0.569570 -0.407089 0.422982 0.140510 0.325030 0.445354 0.120484 0.257060 -0.078019 0.494661 0.029463 0.079859 -0.152704 0.013077 0.468358 0.145775 -0.497213
9025 0.716685 0.272128 -0.592099 -0.117411 -0.235418 -0.763262 0.147608 0.438805 0.970028 0.252277 -0.325580 0.286328 0.259772 0.330264 -0.016628 -0.422909 0.082867 0.235864 -0.287645 0.388660 0.019816 -0.210932 -0.408102 -0.310458 -0.444882 0.043745 -0.245909 0.506335 0.212590 0.334078 -0.234972 -0.787434 0.042210 -0.088069 -0.015780 0.168576 0.120818 0.316979 -0.107192 0.006555 -0.116477 -0.047118 -0.272236 -0.224076 -0.173717 -0.012889 -0.118416 -0.938779 -0.550425 -0.122226 -0.022801 0.398459 0.404412 0.163177 -0.205534 -0.159199 0.672277 0.096112 0.438350 -0.294399 -0.618107 0.500028 0.229549 0.212193
32204 -0.531146 0.064150 -0.234168 -0.271617 -0.222940 0.387040 -0.179908 -0.067361 0.545080 -0.157640 -0.230967 -0.224056 -0.023997 -0.583120 -0.235805 0.045973 0.572720 0.504506 0.218939 0.305073 0.595881 -0.046590 -0.230105 0.121450 0.013132 0.092685 -0.153174 0.073742 0.320857 0.080173 -0.539723 0.030440 -0.088176 -0.078262 -0.370258 0.225779 0.281873 0.629898 0.218285 0.661608 0.272411 0.314341 -0.205459 0.117712 0.267894 -0.288150 -0.149911 -0.455533 0.099638 -0.272138 0.200535 0.151248 -0.027921 -0.150753 0.426839 -0.431962 0.620170 0.135468 -0.054878 -0.082057 0.454714 0.201614 0.283118 0.298084
16783 0.423349 0.612930 -0.348871 -0.096067 -0.696046 -0.596822 0.163655 0.475251 0.676412 0.720979 -0.098318 -0.011102 0.386405 0.430180 -0.159425 0.283556 -0.568550 -0.336126 -0.028806 0.251124 0.338327 -0.578209 -0.743154 0.035863 -0.146013 0.460667 0.047979 -0.130442 0.162618 -0.024271 -0.369792 0.000804 0.258178 -0.098853 -0.594700 0.386522 0.262969 0.546589 -0.492955 0.119959 -0.303852 0.814246 0.230306 -0.110848 -0.090210 -0.088821 -0.274569 -0.439508 -0.035386 -0.146424 0.364474 0.185866 -0.437836 -0.170306 -0.010550 0.340661 0.223752 0.088961 0.747245 -0.346807 -0.243374 0.444108 0.548643 -0.529445
7501 -0.472104 -0.168624 -0.070074 -0.144365 0.135816 -0.233199 0.081905 0.540164 0.324734 -0.332493 -0.048408 0.063160 0.093691 -0.620072 0.334519 -0.220595 0.182858 -0.396596 0.111713 0.494625 -0.073530 0.347423 -0.336650 0.180523 -0.455033 0.027275 -0.274791 -0.426441 0.023458 0.101108 -0.203201 0.192791 -0.175905 0.066335 -0.201182 0.091349 0.467282 1.093974 0.385298 0.229535 -0.214789 -0.213259 0.362653 0.089190 -0.203359 -0.236656 -0.477840 -0.036314 -0.261588 0.017832 0.277103 -0.026550 -0.117904 0.157211 -0.296734 0.218087 0.249911 -0.319294 -0.113023 -0.069444 -0.067766 0.417503 0.441390 -0.577229
46117 -0.266281 -0.102089 -0.075978 -0.164541 -0.168302 0.048151 -0.092434 0.059834 0.350685 -0.566128 -0.385655 -0.199998 0.114688 -0.272097 0.355336 0.372009 0.335769 0.055283 -0.281132 0.443243 0.251011 0.340062 0.293923 -0.135370 -0.214813 0.199951 -0.246233 0.155849 0.197603 0.074749 -0.338726 -0.574653 -0.137063 0.189286 0.345311 -0.507574 0.829289 0.125420 0.145196 0.008030 -0.045174 0.283411 0.026860 -0.098388 0.240880 0.450735 -0.400494 -0.137425 -0.478588 -0.127773 0.483961 0.116517 -0.303067 0.549151 0.509380 0.181345 0.628829 0.138115 0.630452 0.066034 -0.049280 0.146705 0.111508 -0.265169
973 -0.240330 -0.542460 0.286500 0.020104 0.041795 -0.252679 0.275630 0.103890 0.631523 -0.159420 -0.589051 -0.334341 -0.527213 -0.526936 0.668993 0.031430 0.531004 -0.203603 0.109203 0.832468 0.039825 0.398272 -0.517907 -0.035616 -0.518679 -0.265771 -0.037555 -0.089775 0.046734 -0.004666 0.127023 -0.071981 -0.300757 0.275250 -0.153585 -0.045176 0.403063 0.528047 0.702720 0.494598 0.084512 0.224707 0.123843 -0.161712 -0.179893 -0.072074 -0.559831 0.079292 -0.077123 0.165175 0.445554 -0.047431 0.086276 0.106371 0.408321 0.018488 0.136269 0.101316 -0.111592 -0.230126 -0.559507 0.151327 0.368315 -0.228540
3549 -0.208894 0.359829 -0.187719 0.106397 -0.500572 -0.078747 0.550814 0.556330 0.069744 -0.074500 0.435080 -0.091374 -0.561304 -0.382749 0.158429 0.837135 0.468408 0.137098 -0.256248 0.161011 -0.199953 0.257220 0.328756 0.320629 -0.953225 0.092440 -0.267691 0.168000 0.379458 0.375316 -0.032541 0.413149 -0.083304 -0.549371 -0.071044 0.116934 0.668307 -0.075487 0.222551 0.293806 0.272921 0.496672 -0.026808 -0.017300 -0.389809 -0.008865 0.423115 -0.514092 -0.249134 -0.183692 0.163551 0.001437 0.034790 -0.027165 -0.074140 -0.527051 0.456555 -0.092632 -0.299681 0.036210 -0.149260 0.151425 0.792114 -0.341992
11036 -0.459626 0.211422 -0.257570 -0.231014 -0.074898 -0.702197 -0.001073 0.279762 -0.623455 0.343567 -0.136727 0.168888 0.068693 -0.943285 0.479353 0.163677 0.104124 -0.218059 -0.414138 -0.060535 -0.214382 0.574191 -0.123525 0.412194 -0.338997 0.039934 -0.610434 -0.314483 0.112491 0.262277 0.019345 -0.123787 0.180304 0.098564 -0.345222 0.595904 0.394792 0.010590 0.661349 0.301822 0.054336 0.037124 -0.481862 -0.254591 0.342195 -0.310612 -0.025572 -0.331492 -0.385420 0.120333 0.446367 0.996354 -0.095233 0.150847 0.171315 -0.325635 0.388051 -0.056116 0.242719 0.070869 -0.481361 0.601694 -0.015578 -0.010920
14611 1.017531 -0.027152 0.236658 -0.077656 -0.576322 -0.030141 0.165155 0.592415 0.184659 0.154078 -0.395365 -0.086072 0.252953 -0.391020 -0.154151 0.032072 0.374439 -0.386057 -0.414735 0.591519 0.529071 -0.466424 -0.262795 -0.186995 0.743923 0.422843 -0.247306 0.040024 0.415342 0.725001 -0.465721 -0.350859 0.259236 -0.354041 0.122034 -0.288077 -0.079728 0.278782 0.683695 0.010725 -0.462626 0.347678 0.226047 -0.138907 0.138835 -0.084005 0.227629 -0.725021 -0.125446 0.026857 0.386383 0.556440 0.200631 0.032687 -0.089423 0.275721 -0.548514 -0.132697 0.507921 -0.285597 -0.142219 0.676964 0.233176 -0.035162
56303 -0.135652 -0.258219 0.100764 -1.008091 0.081729 -0.114960 -0.245418 0.297879 0.065470 -0.124540 -0.282070 0.003371 -0.004718 -0.149461 0.261238 0.321554 0.301624 -0.002625 -0.263234 0.269268 0.023037 -0.141582 0.059870 -0.052979 -0.419568 -0.209036 -0.347036 -0.015734 0.480477 0.144842 -0.662073 -0.151533 -0.357348 -0.496101 0.081451 -0.091394 0.362252 0.193025 0.201141 -0.209597 0.412887 0.103674 -0.450321 0.023659 0.174845 0.313125 -0.251477 0.198207 -0.372470 0.201073 0.386177 -0.021435 -0.507240 -0.162431 0.740252 -0.152080 0.652378 -0.102424 0.146584 -0.108341 -0.247891 0.386574 0.564539 -0.301237
205 0.013206 0.076786 -0.317966 0.325473 -0.470415 -0.230707 -0.014689 -0.118675 0.312831 0.678040 0.071251 -0.466057 0.233114 -0.492777 0.155565 0.008723 0.279215 -0.779034 -0.206138 0.417715 0.240093 0.243892 0.141563 -0.251651 -0.222105 0.381616 0.112147 -0.139436 0.505782 -0.436786 -0.386959 -0.021273 -0.143959 -0.379022 -0.295083 0.426113 0.881049 0.429626 -0.193422 0.531227 0.307335 0.432737 0.006554 0.129683 -0.196798 0.104702 0.030785 0.293734 0.154420 0.421328 0.128502 0.420477 -0.056284 -0.523197 -0.153248 0.045141 0.754375 0.431946 0.432406 0.253448 -0.382635 -0.430844 0.323524 -0.891786
60035 0.484122 0.283870 -0.487740 -0.597709 -0.378387 0.196297 0.058393 0.905468 0.385595 -0.086430 -0.183786 -0.265903 0.115768 -0.169816 -0.110941 0.157893 0.304352 -0.512787 -0.199547 0.079795 0.471339 -0.087270 -0.261969 0.084603 0.116806 0.779300 0.276996 0.182166 0.043031 0.406800 -0.024094 -0.736895 0.447746 -0.258871 -0.195175 0.279688 0.422561 0.575259 -0.163057 -0.199975 -0.169904 -0.039229 0.658720 0.199837 0.050362 -0.010300 -0.104597 -0.318699 -0.148019 -0.285393 0.046942 0.009587 0.002060 -0.055288 0.323276 -0.048915 -0.095630 0.042442 0.510448 -0.232144 -0.417711 0.447420 0.299782 0.050893
2237 0.076299 0.308934 -0.199105 -0.138595 0.336017 -0.089407 1.050694 -0.048303 0.086740 -0.195636 -0.543119 -0.236470 0.607617 -0.368015 0.264233 0.656943 0.758771 0.059520 0.701336 0.528218 0.015326 0.183423 0.188788 -0.289237 0.218588 -0.431722 -0.083812 0.031623 -0.015302 -0.165640 -0.642695 -0.022725 -0.008712 -0.448395 0.017193 0.349216 -0.044059 0.895541 -0.249403 0.142781 0.344274 -0.324914 -0.158732 -0.407093 0.680861 -0.001376 0.521999 0.030017 -0.453569 0.242108 1.252994 0.367870 0.186388 0.185550 -0.102154 0.060850 0.308483 -0.234938 0.184282 -0.271160 -0.561623 0.047754 0.605222 -0.287533
11714 0.218167 -0.547149 0.568819 -0.634787 0.203156 -0.130120 -0.153693 -0.297107 -0.032226 0.147720 0.706981 -0.236137 0.085023 -0.373380 -0.203070 0.059572 0.433976 0.236342 -0.014341 0.329519 0.003931 0.512209 0.223285 0.080845 -0.199088 -0.521854 -0.335414 -0.250517 -0.064034 0.788364 -0.816643 -0.102204 -0.169642 -0.273391 -0.945395 0.253463 0.300501 0.560113 -0.051521 0.046412 0.440743 0.716323 0.671458 -0.053921 0.288077 -0.361651 -0.200639 -0.148541 -0.413794 -0.388966 0.460412 0.305457 -0.223026 0.230191 0.293401 0.200102 0.359750 -0.231635 0.100762 -0.299632 -0.528913 0.474464 0.172286 -0.457723
389 -0.404703 0.353961 0.208834 -0.436593 0.618281 0.091897 -0.190290 -0.466302 -0.002109 -0.176314 -0.075698 0.068579 0.030578 -0.459220 -0.338227 0.039874 0.269815 -0.379442 -0.217485 0.077863 0.406831 -0.310805 0.370914 0.389557 0.238658 0.237038 -1.087808 -0.028814 0.648439 0.422001 -0.601235 -0.499034 0.052694 -0.685223 0.156180 0.365481 0.052801 0.714519 0.214548 0.103682 0.315989 0.203963 -0.056817 0.251968 0.224174 -0.162523 -0.111823 0.157552 -0.145471 -0.028129 0.612572 -0.018583 -0.266100 0.381963 0.437121 -0.227208 0.461561 0.400478 -0.288435 -0.486197 -0.213182 0.449428 0.505712 -0.056068
52908 0.534404 -0.296237 -0.050551 -0.224830 0.290784 -0.473294 0.142420 0.148514 0.564645 0.148143 -0.355942 -0.260567 -0.248079 -0.028793 0.140686 0.016235 0.743912 0.149459 -0.575484 -0.065083 -0.074900 0.378074 0.204747 0.005240 -0.309004 0.200864 -0.544770 -0.359689 0.256022 -0.337881 -0.584626 -0.323860 -0.030503 0.733150 -0.332338 0.379194 0.984748 0.301813 0.637646 -0.164605 0.479825 -0.052924 0.112174 0.768114 -0.656585 -0.365031 -0.192332 -0.932499 -0.575499 -0.087697 0.844320 0.132003 -0.140340 -0.524534 0.225889 -0.226876 -0.193188 -0.452157 0.178402 -0.079811 0.417567 0.419802 -0.001069 -0.187954
5123 -0.370139 -0.354136 -0.446491 -0.016627 -0.283644 -0.229646 -0.331338 0.439330 0.098108 -0.364147 -0.106108 0.033960 0.198122 -0.334493 -0.203857 -0.023858 0.513216 -0.217539 -0.559689 -0.126783 0.345391 0.472872 0.569329 0.513025 -0.328629 0.095446 0.211666 -0.272606 0.136717 0.049468 -0.178136 -0.482608 -0.097520 -0.289401 0.119535 0.300475 0.249091 0.635547 0.370636 0.681497 0.039120 0.166343 0.237998 -0.153320 -0.221477 0.165872 -0.610023 0.317320 -0.105201 0.085781 0.354541 0.082304 0.263038 -0.011832 0.386568 -0.055506 0.189680 -0.124596 -0.145474 -0.534241 -0.172729 0.227442 0.416796 -0.207255
14625 0.724331 -0.208645 0.160960 -0.200945 0.074529 -0.408828 0.051160 0.289287 0.435294 0.159070 -0.540750 0.027029 -0.413354 0.291458 0.057806 0.820880 0.329275 -0.067995 -0.430406 0.565861 0.218264 -0.271725 -0.366098 0.161817 0.481775 0.294895 0.516257 0.317626 0.606223 0.907718 -0.213132 -0.419469 0.207905 0.482750 -0.029254 0.513888 0.236212 0.441951 -0.425702 0.298325 -0.108819 0.616690 0.452784 0.046810 -0.454814 -0.110876 0.827298 -0.940519 -0.277968 -0.123222 0.284605 0.186146 -0.216157 0.223587 -0.089521 1.137884 0.290113 -0.033622 0.576098 -0.627150 -0.522155 0.750311 0.349434 0.076409
50218 0.119185 0.242760 0.020915 0.145381 0.040299 0.164262 0.039837 0.475146 1.155941 0.551771 -0.301900 -0.231179 0.809576 0.313918 0.094612 -0.124863 0.522360 0.027946 -0.230001 0.776832 0.021117 -0.061244 -0.191934 -0.204881 -0.203118 0.493936 -0.263506 0.168693 0.132198 -0.134200 -0.249420 -1.072303 0.299588 0.116723 -0.087094 -0.021585 0.370886 0.610980 -0.114294 -0.234317 -0.245512 0.326651 -0.250540 -0.167089 0.032608 -0.041855 0.091663 -0.397746 -0.135360 -0.258560 0.192711 0.061953 -0.093143 0.311937 -0.036454 -0.078324 0.536135 -0.060995 0.006290 -0.335525 -0.665946 0.236565 0.208252 -0.179100
3533 0.230174 0.107236 0.091394 0.276398 -0.079556 -0.634330 0.350289 0.095885 0.667803 -0.071682 0.420990 -0.255008 0.320152 -0.387403 -0.338214 0.611953 0.027966 -0.375963 0.078303 0.149133 0.283788 0.045233 0.248382 -0.352485 -0.255828 0.062559 -0.503230 0.010277 -0.038632 0.490723 -0.342462 -0.332277 -0.148581 0.252318 0.197526 0.207290 0.617216 0.691318 1.040028 0.079411 0.533580 -0.074975 -0.362471 -0.032923 0.226973 -0.051252 0.373855 -0.013846 0.514371 0.170592 0.040528 -0.127969 -0.368376 0.417051 0.571899 -0.340863 0.073893 0.165596 -0.114375 0.245155 -0.157089 0.437967 -0.137478 -0.604268
12965 0.064157 -0.331462 0.082440 -0.026449 -0.012123 -0.019303 -0.002743 0.719948 0.361502 -0.077065 -0.111718 -0.165904 0.108871 -0.233865 -0.248543 0.290692 0.243691 0.215700 -0.405470 0.283719 0.533014 0.568491 0.423294 0.175681 0.022342 -0.155473 -0.321912 -0.187148 0.150885 -0.065216 -0.448492 -0.136022 -0.228639 0.703264 -0.298438 0.275597 0.277840 0.592030 0.524298 -0.435453 0.111329 0.380161 -0.278750 0.054383 -0.300893 -0.304507 -0.563074 -0.729833 -0.292731 -0.031041 0.833284 0.196749 0.140876 -0.020023 0.403269 -0.043707 0.090414 0.101375 0.023592 0.579263 0.206299 0.151632 -0.232182 -0.415514
11692 -0.201130 -0.114427 -0.184740 -0.197469 -0.531547 0.186759 0.254184 0.313797 -0.010306 -0.081497 0.171550 -0.119315 -0.047233 -0.651305 0.249233 -0.005404 0.055583 -0.024444 0.241331 0.229686 0.444969 0.413006 -0.122827 0.083463 -0.081087 0.154856 -0.160308 -0.196565 0.256691 -0.114291 -0.002644 -0.352151 -0.603932 0.395281 -0.298525 -0.197840 0.409844 0.631400 0.196854 -0.003228 0.392830 0.528136 -0.269866 -0.381505 -0.287861 -0.376461 -0.002285 -0.511450 0.170036 -0.255601 0.941632 0.078193 0.216167 0.059070 0.495210 0.482523 0.493051 -0.345709 0.192078 0.480487 -0.165808 0.504223 0.398189 -0.255679
34236 0.468828 0.098012 -0.144685 -0.161269 -0.467375 -0.502385 0.055050 0.129910 0.505146 -0.255444 -0.443036 -0.031137 -0.077871 -0.298543 -0.075713 0.460025 0.216270 -0.400510 -0.414608 0.204411 0.290494 -0.430960 -0.046784 0.093008 0.702321 0.099618 -0.502272 0.413701 0.420786 0.574647 -0.438534 -0.213359 0.476574 0.203485 -0.363544 0.086156 0.522919 0.697678 -0.197799 -0.397456 -0.332772 0.267063 -0.191177 -0.102046 -0.026616 -0.166798 -0.021339 -0.754735 -0.148826 -0.142608 -0.476368 0.135939 0.538920 0.607615 -0.022362 0.067807 -0.183527 0.010864 -0.073634 -0.539747 -0.198053 0.069176 0.714414 0.244547
8321 0.119910 0.032349 0.335591 -0.590159 0.080880 -0.293103 0.102598 0.207364 0.268222 0.206000 0.132174 0.061083 0.560376 -0.785461 0.077938 0.022697 0.178749 -0.635862 0.120081 -0.106716 0.496248 -0.134136 -0.644931 0.501417 -0.660771 0.094998 -0.028128 -0.705467 0.492690 0.034823 -0.057188 -0.453999 -0.743928 0.004872 0.227553 0.503057 -0.170284 0.184862 0.323878 -0.147707 0.024001 0.516443 -0.342560 -0.301856 -0.268873 0.133318 0.571037 -0.532616 0.018766 -0.396786 0.456112 -0.177500 0.326986 0.269870 0.266902 0.218911 -0.230516 -0.057271 0.208624 0.017461 0.106331 0.127517 0.620417 -0.253344
5281 0.217252 -0.037815 -0.327507 0.086737 -0.272534 -0.271132 -0.223053 0.216831 -0.071928 0.196221 -0.083440 -0.002816 0.003140 -0.905629 0.832465 0.044650 0.254045 -0.135555 -0.003274 0.353404 -0.233844 0.434292 -0.293394 -0.137421 -0.058442 0.294176 -0.208859 -0.663543 0.291063 0.346373 -0.086226 -0.364489 0.013035 -0.236040 -0.375434 0.692889 0.658152 0.700814 0.847467 0.421948 0.201642 -0.075512 -0.149222 -0.238006 -0.220141 0.033537 -0.114698 0.303038 0.052949 0.112413 0.292314 0.357557 0.004822 0.274079 -0.054943 -0.131491 -0.012513 0.196856 -0.196980 0.387534 -0.163351 -0.223098 0.288428 -0.249005
50927 0.037589 -0.066302 -0.090890 -0.225978 -0.202731 -0.180515 0.355742 0.227580 0.223304 0.072847 -0.197829 0.054121 0.342862 -0.372712 -0.271392 0.473271 0.267234 0.028491 -0.731223 0.378960 0.340185 0.475237 0.171888 -0.036087 -0.600262 0.247601 -0.198348 -0.033294 0.023828 0.343319 -0.537644 0.245442 -0.200172 0.256929 -0.429327 -0.107416 0.341294 0.389796 0.225534 0.009798 0.065146 0.103395 -0.480240 0.034639 0.116203 0.090118 -0.105007 -0.170145 0.082891 0.218267 0.060742 0.434991 0.228928 0.329217 0.144555 0.182052 0.169495 -0.046949 0.003038 0.100379 0.112809 0.440091 -0.111092 -0.837977
14565 0.372583 0.220134 0.082846 0.049287 -0.301397 -0.157221 0.093231 0.208500 0.684402 0.136832 -0.651625 0.457119 0.141203 -0.323387 -0.041473 0.447508 0.166869 0.248073 -0.255111 0.565348 0.264802 -0.150026 -0.279304 0.029398 0.503844 0.121124 -0.483106 0.453511 0.525622 0.585565 -0.003274 -0.034041 0.785099 -0.026400 -0.477030 0.380729 0.167180 0.325286 -0.077004 0.524738 -0.231636 0.325266 0.274879 -0.105532 -0.170156 -0.248117 0.342451 -1.032112 -0.254472 -0.043061 0.002897 -0.149251 0.224028 0.266657 0.003933 0.827003 0.021259 -0.226640 0.216050 -0.596543 -1.117370 0.044534 0.396818 0.275049
42643 0.257429 0.246304 0.036940 -0.390327 0.383610 -0.133280 -0.221255 -0.203060 0.630398 -0.211930 0.204446 -0.122308 0.088802 -0.474635 -0.188613 0.172300 0.332241 -0.111878 -0.484112 0.454325 0.298773 -0.417230 0.164107 0.476653 -0.174769 0.280041 -0.028106 0.041167 0.282525 0.524133 -0.266590 0.448485 -0.419564 -0.530260 -0.031118 -0.177367 -0.002921 0.719231 0.378167 0.550395 0.517824 -0.204669 0.139928 0.243196 0.087081 -0.094128 -0.422245 -0.465632 0.218133 0.100573 0.372981 0.915987 0.507081 -0.178716 0.356197 -0.358512 0.193729 0.016340 -0.049734 0.469661 -0.114642 0.083407 0.414543 0.018559
118818 -0.267058 -0.281112 0.089065 -0.038592 0.278981 -0.492814 0.208869 0.351063 0.486184 0.010600 -0.220246 -0.147057 -0.218914 -0.312952 0.768816 -0.242167 0.331761 -0.298268 0.082746 0.218150 0.103792 0.131176 -0.417726 -0.313760 -0.117252 -0.143719 -0.146241 0.035288 -0.117211 -0.162696 -0.591489 0.074258 -0.498832 0.191100 -0.120332 -0.521374 0.324195 0.621271 0.712127 0.259927 -0.416699 0.393316 -0.095863 0.540674 -0.572197 0.226658 -0.438166 -0.240305 0.160328 -0.040414 0.509427 -0.180564 0.149376 0.240014 0.233275 -0.281420 0.066547 -0.426105 -0.356779 0.119154 -0.941413 0.557679 0.406397 -0.014353
75798 0.019212 -0.056728 -0.103239 0.144047 -0.047485 0.009212 0.017692 0.256977 0.602043 -0.074565 -0.580111 0.076700 0.179336 -0.465338 0.309498 0.217333 0.159685 0.267106 -0.381769 -0.092077 0.010352 0.310745 -0.182347 0.521083 -0.556128 0.215853 -0.471220 0.026616 0.006920 0.175349 -0.275995 -0.065035 0.045685 0.117709 -0.054231 -0.177839 0.210246 0.349925 0.054807 0.058718 0.089172 -0.107227 0.270857 0.059841 0.194299 0.120049 -0.198059 -0.418463 -0.290405 -0.260289 0.095034 -0.160702 -0.202757 0.318904 0.611139 -0.175176 0.303007 0.136190 0.257332 -0.025657 -0.111207 -0.158866 0.152914 -0.579501
27311 0.177251 -0.033370 -0.512987 0.074301 -0.110213 0.090648 -0.321605 0.479247 0.008803 0.229029 -0.270169 -0.023897 -0.413026 -0.389997 0.308864 -0.082784 0.247582 0.007799 -0.342174 -0.100563 0.293251 0.179110 -0.424685 0.107791 -0.601411 0.351402 0.036749 -0.360520 0.218000 0.020491 -0.569800 0.111756 0.037146 -0.154576 0.283607 0.253111 0.196112 0.051755 0.152282 0.013860 0.308957 0.347127 0.064394 -0.287979 0.242381 0.225028 0.431131 -0.275905 0.368268 0.575554 0.439258 0.220973 -0.080727 -0.233333 0.295626 0.008270 0.809552 -0.453524 0.106932 -0.073644 0.050649 0.537333 0.123497 -0.269502
2941 0.110235 -0.028260 0.277584 0.092811 0.508052 0.063775 0.656088 0.314630 0.604079 -0.115013 -0.344313 0.188553 0.463726 -0.648279 0.534478 -0.019542 -0.001615 -0.306705 -0.285050 -0.352934 0.388817 0.488510 -0.180314 0.306569 -0.638995 -0.150596 -0.028792 0.408269 0.000622 -0.024011 -0.111034 -0.261204 0.300273 0.281683 0.200672 0.314099 0.468941 0.227526 0.222988 0.297355 0.617775 0.340308 -0.124385 -0.230287 0.212241 0.313257 -0.721919 -0.608371 0.004332 0.093407 0.196701 -0.126879 -0.163953 0.251366 0.820904 0.172250 -0.048377 0.101108 0.089771 0.028002 -0.640952 -0.405054 0.297453 -0.500221
108150 0.326513 0.144387 0.010592 -0.254468 -0.553286 -0.081540 0.397400 0.388473 0.952146 -0.157818 -0.241850 -0.532485 0.277189 0.080526 -0.413413 0.172292 0.533804 -0.420843 -0.465402 0.209149 0.092819 -0.192840 -0.444319 -0.217693 0.273034 0.238032 -0.005764 0.054119 0.188255 0.679124 -0.494062 -0.143483 0.162901 -0.021132 -0.401434 0.341340 0.198375 0.461671 0.036011 -0.421802 -0.198045 0.009275 0.231960 0.111229 -0.104482 -0.103338 -0.059315 -0.583960 -0.489778 -0.578495 0.298073 0.183179 0.300613 0.189742 -0.103406 0.517212 -0.479670 -0.162091 -0.157177 -0.115012 -0.465670 -0.067054 0.521864 0.057428
29542 -0.052882 -0.305623 -0.681347 -0.258703 0.072071 -0.288037 -0.258955 -0.001918 0.324696 0.113380 -0.144290 -0.426680 0.454236 -0.355406 0.109138 0.175011 0.460988 -0.509462 -0.417659 0.177458 -0.331893 0.522669 -0.053556 -0.234273 -0.567582 0.309862 0.137313 0.019029 0.014085 0.006013 0.212196 0.097982 -0.434971 -0.476026 0.328117 0.430211 -0.257453 0.020333 0.967801 -0.190601 -0.151822 0.211087 0.592747 0.299431 -0.013971 0.405327 0.244583 -0.565684 -0.256120 0.170031 0.379150 0.078419 0.278392 -0.014834 0.393332 0.158389 0.301996 -0.165448 0.028792 -0.015093 -0.134343 0.379028 0.574260 -0.414062
12022 0.602338 0.222488 -0.364925 -0.214966 -0.681649 -0.179258 -0.304573 -0.109174 0.338533 -0.564145 -0.327628 0.135173 -0.060146 -0.205790 0.418601 0.248219 0.260387 -0.317072 -0.318035 0.103329 0.179289 0.232874 0.498282 -0.323113 -0.180193 0.516813 -0.717456 0.008335 -0.189128 -0.035392 -0.507874 0.241584 0.096744 -0.046957 -0.010483 -0.264498 0.026606 0.263563 0.001720 0.040032 0.097753 0.060417 0.080702 0.087136 0.115503 -0.102746 -0.529178 -0.069429 -0.198841 -0.139503 0.422680 0.165715 0.033697 0.421417 0.099646 -0.418435 0.524338 0.146374 -0.080927 0.339433 -0.507631 0.381413 0.601691 -0.851925
38819 0.114797 0.519929 -0.062098 0.214023 -0.094446 -0.010671 -0.096878 0.569943 1.028573 0.550471 -0.152806 -0.054257 0.268385 0.148998 -0.168483 -0.082921 0.288007 -0.222638 -0.179258 0.408256 -0.317174 -0.216742 -0.793591 -0.047116 -0.296297 0.407338 -0.312951 0.325781 0.518738 0.495041 -0.101173 -0.997579 0.426966 0.064261 0.006241 -0.066619 0.460943 0.830879 0.190814 -0.190046 -0.126698 0.113880 -0.706450 -0.293594 -0.025058 0.210596 0.111442 -0.443631 0.076241 0.111884 0.017256 0.292328 0.278393 0.165138 -0.305511 0.078507 0.377556 -0.024060 -0.022243 -0.577384 -0.469055 0.279852 0.366112 -0.078193
4570 -0.253845 -0.267520 -0.830584 0.301102 0.086645 -0.027948 0.263755 0.381858 0.201422 -0.351760 -0.565120 -0.088648 0.389276 -0.640804 -0.066905 -0.050527 0.071603 0.075327 -0.356818 -0.037663 0.109709 0.363970 0.181066 0.335394 -0.105675 -0.109111 -0.044666 -0.142424 1.452319 -0.100616 0.110616 -0.025148 -0.291497 -0.172831 -0.259277 0.095876 0.114845 0.223256 0.238998 0.495124 0.045007 -0.178646 0.217230 0.208981 0.131957 -0.290980 -0.173588 -0.228338 0.031560 -0.050763 0.379013 0.044759 -0.252049 -0.077366 1.045219 -0.448450 0.328003 0.501470 -0.146238 -0.199168 -0.405565 0.531425 0.754068 -0.176462
5155 0.381340 -0.193329 -0.319904 0.189517 -0.410318 -0.605999 -0.341751 -0.191206 0.484775 0.053714 -0.006179 -0.146604 -0.004624 -0.577161 -0.075014 0.489210 0.156019 -0.264804 -0.125166 0.097811 0.343459 0.376727 -0.158934 -0.278691 -0.515599 -0.027618 -0.054772 0.163575 0.328693 0.510576 0.067861 -0.086979 0.051720 -0.139106 -0.030458 0.520365 -0.186136 0.312799 0.202149 0.423811 0.345436 0.085698 -0.121321 0.152530 -0.216179 -0.051620 -0.004410 0.092600 -0.334945 0.077883 0.315436 0.089377 0.399985 0.437087 0.572323 0.065271 0.375946 -0.068879 -0.266735 -0.089268 0.485428 -0.090144 0.403217 -0.506151
26153 0.396710 0.006030 -0.579206 0.057801 -0.536115 0.107324 0.170804 0.364486 0.313047 0.338022 -0.198972 -0.217923 0.418350 -0.297943 0.362847 -0.111183 0.458915 0.166532 -0.645004 0.534042 0.288983 0.265665 -0.150503 0.457148 -0.727571 0.173219 -0.255689 -0.256736 -0.091682 0.448171 0.051151 0.265641 -0.084046 -0.044653 0.250616 -0.086123 0.146757 0.385513 -0.122090 0.197395 -0.520975 -0.216553 -0.354734 -0.152330 0.182991 0.092530 0.082545 -0.588606 -0.049917 0.129491 0.457404 -0.254562 -0.276645 0.119144 0.261994 -0.074133 0.823426 0.008369 0.007268 -0.310082 -0.093144 0.328005 0.160395 -0.381856
14907 0.125494 -0.265116 -0.200407 -0.043267 -0.065099 -0.078169 0.530711 0.265242 0.474905 -0.675325 0.028282 0.051774 0.175282 -0.561983 0.327377 0.143454 0.212781 -0.163200 -0.136402 0.148563 0.720158 0.375165 0.138038 0.059700 -0.642925 0.088952 -0.107285 0.051358 -0.111289 -0.079326 0.004551 -0.147692 -0.065585 -0.285235 -0.129080 0.414541 0.376418 1.025829 0.612270 0.508860 -0.322390 -0.299431 0.249732 -0.178747 -0.442179 -0.001341 -0.417660 -0.080311 -0.401289 -0.190583 0.167777 0.061289 0.180450 0.512502 -0.136686 0.006694 0.260639 0.158240 -0.189104 -0.410249 -0.183730 0.314337 0.166420 -0.483473
18431 -0.160018 -0.064628 -0.476603 -0.408328 0.114525 0.208577 0.313199 0.510705 0.199095 0.204376 0.224335 -0.680164 0.290907 0.197434 0.069793 0.367153 0.555156 -0.260097 -0.464557 0.341279 -0.259838 0.568075 -0.293605 -0.158678 -1.010248 0.283266 -0.187944 -0.060646 0.713898 -0.516425 0.092791 0.022798 0.070239 -0.427311 0.187385 0.237876 0.175211 0.021953 0.163184 0.296910 0.310364 0.311021 0.458030 -0.323537 0.013361 0.046144 0.255336 -0.694861 -0.206016 0.649088 0.419605 0.296257 0.326007 0.152428 0.034150 -0.207547 0.174626 0.017667 0.342484 0.081725 0.116354 0.520910 -0.286727 -0.627730
56426 0.269201 -0.075225 0.050822 0.001039 -0.635532 0.047702 0.047432 0.247929 0.775445 -0.046003 -0.401352 0.134055 0.372528 -0.512882 -0.302138 0.200739 0.216641 -0.207016 -0.082452 0.321586 -0.009828 -0.180454 -0.010265 0.024066 0.066382 0.188580 -0.176530 0.080913 0.481219 0.576735 -0.325997 -0.483974 0.157074 0.162243 -0.085526 0.073244 0.315959 0.146089 0.062584 -0.208361 0.001332 0.270784 -0.188804 0.158956 0.018943 0.083640 -0.108425 -0.387915 0.026262 0.141454 0.072855 0.066811 0.412039 -0.052066 0.329114 0.095726 0.185557 -0.044540 0.080658 -0.603235 -0.489910 0.143387 0.318161 0.449656
76165 -0.323353 -0.327867 -0.362541 0.087178 -0.440547 -0.026611 0.293134 -0.050053 0.317593 -0.182975 -0.255513 -0.164886 -0.272028 -0.214303 0.008038 0.257820 0.040008 -0.028730 -0.421330 0.247982 0.248702 0.311034 -0.131585 0.546277 -0.159032 0.131237 -0.321356 -0.103753 0.213306 0.431694 0.157083 -0.330770 -0.275420 0.561223 -0.147447 -0.054288 0.040152 0.558585 0.259134 -0.272110 0.147276 0.053320 -0.074831 0.107261 -0.127631 0.077079 -0.419971 -0.554792 -0.371465 0.349173 0.425418 -0.013353 -0.173056 0.093388 -0.070987 0.238179 0.956354 0.297257 0.504142 0.034536 -0.001890 0.329763 -0.010935 -0.604440
50250 -0.180193 0.236093 0.051617 0.287641 -0.369112 -0.225654 -0.062895 0.467526 1.090921 0.291007 -0.275496 -0.215150 0.171848 -0.022148 -0.303600 0.073336 0.131521 -0.397942 0.018609 0.357026 -0.220977 -0.081696 -0.398144 -0.149025 -0.066726 0.345637 -0.176377 -0.003308 0.625067 0.485365 -0.233065 -0.874741 0.571214 0.207547 0.093639 0.084669 0.297038 0.391375 0.241888 -0.013322 0.056666 0.094467 -0.729317 -0.078756 -0.102826 0.219345 0.565762 -0.373322 -0.041640 0.000860 -0.005557 0.388810 0.019593 -0.114018 -0.163157 0.027199 0.157800 -0.132346 -0.312056 -0.468786 -0.605692 0.266546 0.202246 0.062201
8835 0.052133 0.027837 -0.319511 0.105457 -0.839469 0.058507 -0.167621 0.536193 0.429757 0.351383 -0.796729 0.568306 -0.125899 -0.077043 -0.014845 0.251233 0.684759 -0.120847 -0.594299 0.373067 0.191366 -0.291218 -0.336846 0.034794 0.086532 0.600348 -0.174774 0.278747 0.300535 0.539045 0.158539 -0.757319 0.619715 -0.214922 -0.648122 0.046079 -0.113824 0.444319 0.315548 0.074923 -0.196310 0.875413 0.070326 0.002881 0.293221 -0.129383 0.210390 -0.519271 0.080711 0.366885 0.290007 -0.239706 0.001109 0.325156 -0.253643 0.047500 0.099449 -0.145584 0.548155 -0.331844 -0.656795 -0.044587 0.132647 0.067657
20718 -0.337801 -0.326097 -0.130377 0.379575 -0.379836 -0.165842 -0.232340 0.556569 0.539172 -0.046516 -0.087992 0.008125 0.009918 -0.672537 -0.198528 0.197556 0.474557 0.187662 -0.302897 0.013058 -0.209246 0.373162 -0.015741 0.557890 -0.046586 -0.167163 -0.140988 -0.357516 0.116098 0.197914 -0.336047 -0.300364 -0.219903 0.789978 -0.097059 -0.150852 0.052036 0.766656 0.584262 0.092685 0.362968 -0.004698 0.218922 0.366113 0.639843 -0.253582 0.045305 -0.008935 0.160179 -0.087541 0.564513 0.138869 -0.150630 0.301592 0.074746 0.093121 0.318667 -0.130782 0.502266 0.047332 0.027427 -0.205220 1.054204 -0.081699
22450 -0.416447 0.358837 0.373940 -0.861544 0.296758 -0.025693 0.031289 0.001499 0.216441 -0.305334 0.124087 0.072844 0.284222 -0.558151 -0.139267 0.494718 0.530728 0.480103 -0.186088 -0.098835 0.438389 -0.007838 -0.234201 0.358501 -0.336376 0.115698 -0.348452 -0.246786 0.626490 0.356678 -0.446357 -0.164723 0.035899 -0.698292 -0.354698 0.307815 0.001927 0.573909 0.186512 -0.228981 0.519596 -0.000832 0.075181 0.520242 0.489495 -0.176448 -0.135773 0.086125 -0.101706 0.122545 0.628823 0.019234 -0.092929 0.044146 0.246680 0.010923 0.368296 0.131985 0.147453 -0.029835 -0.378217 0.243667 0.266674 -0.252569
17155 0.275718 0.194351 0.053505 -0.191518 -0.022986 0.116245 0.089772 0.177561 -0.388413 0.437550 0.038188 -0.233197 0.440593 -0.420387 0.423080 0.616835 0.047067 -0.183864 -0.381173 -0.052999 0.078154 0.549942 0.123117 0.353730 -0.509391 0.100101 -0.123222 -0.089609 0.177638 0.412907 -0.633672 0.149904 0.382929 -0.095444 -0.309567 0.077001 0.419639 0.279581 0.079701 0.192045 0.297935 0.109046 -0.600068 0.035429 0.575316 0.058674 -0.039606 -0.455788 -0.137701 0.296153 0.271109 0.325620 0.457964 -0.083516 0.204106 -0.058095 0.555699 -0.276261 0.303857 0.010187 -0.206475 0.456698 -0.175077 -0.281262
37428 -0.045801 -0.052782 -0.350578 0.064019 0.032197 -0.142288 0.120666 0.641125 0.142227 0.179527 -0.277496 -0.095067 0.010575 -0.247020 0.058011 0.329277 0.226236 0.156017 -0.067869 -0.112874 0.098265 0.403207 -0.210839 0.345518 -0.202873 0.024415 -0.626348 -0.352182 -0.209086 0.072992 -0.046582 -0.317154 0.019117 -0.330378 -0.270515 0.143679 0.109877 0.610906 0.280621 -0.315622 0.364087 0.363814 -0.157002 -0.028880 0.227022 0.164410 -0.223905 -0.581234 -0.242194 0.123252 0.138478 0.631394 0.341723 0.073704 0.670209 -0.309613 0.332509 -0.026647 0.175422 0.591393 -0.270806 0.195850 -0.165739 -0.279201
103451 -0.025902 -0.185541 -0.349777 -0.175489 -0.242736 -0.165581 -0.096104 0.116013 0.288569 -0.159802 -0.388015 0.249950 0.193764 -0.286025 -0.188732 0.079255 0.500688 -0.061088 -0.086284 -0.160769 0.037275 0.042910 -0.200717 -0.201968 -0.106435 -0.218039 -0.215823 -0.383681 0.355729 -0.008004 -0.145380 0.256964 -0.275438 0.438622 0.161349 0.572568 0.140914 1.004223 0.330097 -0.022695 -0.105360 -0.172764 -0.100029 0.340609 -0.322242 0.146162 -0.584528 -0.387945 -0.164663 0.347065 0.295308 0.592021 -0.141492 0.291278 0.173846 0.186113 0.849883 -0.047611 0.149575 -0.508768 0.053095 0.531584 -0.513377 -0.195551
141619 -0.110137 -0.381970 -0.489922 -0.170306 0.254554 -0.788187 0.102744 0.322404 0.179847 0.232817 -0.213705 -0.415021 -0.123419 -0.002644 0.014750 -0.035739 0.110541 0.028275 -0.020138 0.011207 -0.117281 -0.153616 -0.160417 -0.028024 -0.183038 0.119929 -0.047577 -0.320052 0.092778 0.456493 -0.534546 0.175688 -0.318320 -0.101446 -0.174495 -0.890693 0.660153 0.577484 0.807615 0.136608 -0.241632 0.246432 -0.369257 0.228677 0.232955 0.469987 -0.388934 -0.682566 -0.180774 -0.182781 0.405735 -0.631102 -0.043155 0.242704 0.397517 -0.160392 0.443763 -0.416498 0.165258 -0.030245 -0.497898 0.112239 -0.128643 -0.605862
26092 -0.383704 -0.132145 -0.045424 0.257843 -0.344080 0.347385 0.063567 0.520656 0.068518 0.010444 -0.165136 -0.447918 -0.314198 -0.475302 0.228843 0.386112 0.356345 0.002648 -0.181907 -0.251670 0.488205 0.135173 -0.190118 -0.177394 -0.471475 0.419421 -0.194299 -0.349831 0.144933 0.112643 -0.684346 -0.011976 -0.035222 -0.081886 0.315334 0.358052 0.169137 0.088647 -0.056463 0.432160 0.029755 -0.032040 -0.417729 -0.117441 0.088468 0.160161 -0.397877 -0.287367 0.140228 -0.187113 0.571031 0.059713 0.322726 -0.059189 0.276292 -0.073663 0.436698 -0.352317 0.330723 0.070809 0.282993 0.804050 0.506757 -0.051290
13854 0.076825 -0.324131 -0.655410 0.112975 0.630655 -0.369657 -0.221343 0.000042 0.291475 -0.541425 0.045171 -0.001528 0.218556 -0.691600 -0.530406 -0.350133 -0.671822 -0.773057 -0.466718 -0.188205 0.427156 0.135432 -0.037302 0.075873 0.202445 -0.199318 -0.351022 0.118055 0.822885 -0.200543 -0.172256 -0.238038 -0.505673 0.124970 -0.648619 -0.066115 1.057329 0.496576 0.013721 0.261353 -0.097923 -0.070151 0.277634 -0.291611 0.302133 -0.303944 0.093927 -0.560790 -0.205686 0.705333 0.729748 0.042196 0.307770 -0.104531 0.891891 -0.404089 0.490344 0.425976 -0.442076 0.196349 -0.363042 0.615782 0.784086 -0.651471
11921 0.440919 0.351936 -0.335776 0.068405 0.352371 -0.197821 1.048028 0.062011 0.734974 -0.062428 -0.442568 -0.244861 0.213981 -0.684508 0.743120 -0.051351 0.282620 0.108205 0.147834 -0.001512 0.063454 0.416259 -0.060499 0.316916 -0.408958 0.067342 0.050794 0.374550 -0.285168 0.229546 -0.355005 -0.183179 0.314216 -0.087995 0.372546 0.455883 -0.052531 0.337510 0.399417 0.261734 0.663440 0.641752 0.284270 -0.138808 0.066060 -0.099746 -0.752656 -0.277713 -0.183177 -0.047086 -0.219893 -0.280225 -0.529306 0.396107 0.290796 -0.219509 0.057559 -0.047196 0.343535 0.266932 -0.130289 0.195965 0.530879 -0.952569
74295 0.525589 0.434017 -0.496078 -0.319049 -0.165914 -0.052954 -0.014773 0.389565 0.334970 0.404352 -0.542140 -0.012443 0.011844 0.077040 -0.002304 0.102901 0.267116 -0.467439 0.050272 0.115234 0.011577 -0.473522 -0.784384 -0.487615 -0.355752 0.071765 -0.154894 0.628492 0.051023 -0.069888 0.141216 -0.711378 -0.488187 0.011546 -0.308389 -0.307940 0.166714 0.575316 0.311215 0.255562 0.413036 -0.224841 -0.022879 -0.018888 -0.060923 -0.510213 -0.172157 -0.521953 0.014933 0.424996 0.160005 0.037726 0.248433 0.598930 -0.052357 0.191303 0.252142 -0.066978 0.106898 -0.688411 -0.278951 -0.012342 0.650007 0.166337
68206 -0.442006 -0.008441 -0.034105 -0.088891 -0.530886 0.169879 0.104518 0.270679 0.458054 0.140742 0.036108 0.081991 -0.211652 -0.759832 0.102566 -0.378535 0.280363 -0.039881 -0.615737 0.129143 0.222846 0.006540 -0.021549 0.296192 -0.094779 0.030189 -0.345573 -0.275517 0.085814 0.102910 -0.181114 -0.241065 -0.393257 0.100336 -0.399340 -0.011467 -0.104545 0.339602 0.401184 0.134334 0.117266 0.318869 -0.419278 -0.225618 -0.031039 0.149769 0.150014 -0.473635 -0.044615 0.177099 0.526707 0.162117 0.094503 -0.201753 0.649477 0.289953 0.514820 -0.144206 0.377127 0.415445 0.167424 0.220785 0.456048 -0.584179
75083 0.216542 -0.075772 -0.197287 0.128557 0.243764 -0.263694 0.012030 0.241335 0.460300 -0.252238 0.012015 -0.117229 -0.204638 -0.654042 0.119987 0.056198 0.343312 0.106214 -0.280549 -0.143617 0.256599 0.708567 -0.485463 -0.164110 -0.643719 0.087252 -0.060234 0.095297 0.417500 0.006634 -0.259188 0.122819 0.116717 0.285398 -0.038171 0.249558 -0.011966 0.319925 0.053826 0.090539 0.328098 0.198771 -0.216791 -0.554959 0.058679 0.262904 -0.388898 -0.072210 0.019789 -0.092386 0.502695 0.186699 -0.012353 0.259981 0.566835 -0.072319 0.485910 0.231770 0.305247 -0.279427 -0.000503 -0.089322 0.112601 -0.267276
24704 -0.080452 -0.501843 0.012606 0.153474 -0.287550 0.135952 0.163976 0.235186 0.042459 0.141944 -0.068133 -0.292073 -0.291418 -1.032061 0.264900 0.029975 0.493459 0.446411 -0.028740 0.217388 0.092490 0.596673 -0.566136 -0.279637 -0.216182 0.183315 -0.000787 0.104645 0.352259 0.065441 -0.005953 0.137629 -0.471882 0.060683 -0.825132 0.261754 0.550877 0.985004 0.152242 0.156108 0.256172 -0.091163 -0.114491 -0.223962 -0.043240 -0.233348 -0.580248 0.120972 -0.129328 -0.001980 0.435477 -0.012754 0.025493 0.132894 0.409056 0.022840 0.128778 -0.246820 0.151429 0.093895 -0.337731 0.028827 0.599341 -0.414103
